{"conv1.weight": [[[[0.3325124979019165, -0.7186207175254822, -0.9259322881698608, 1.0803219079971313, 1.2892481088638306, 1.3678600788116455, -1.295392632484436], [-1.2174105644226074, -1.2325032949447632, -0.03365068882703781, -1.0600371360778809, 0.5857488512992859, 0.26943427324295044, 1.0593886375427246], [0.9754693508148193, -0.818781316280365, -0.27905938029289246, 0.02647753432393074, 0.9272083640098572, 0.9833314418792725, -1.0934637784957886], [0.2653736472129822, -0.7066232562065125, 0.35936737060546875, -0.21531939506530762, -1.2509934902191162, 2.256939649581909, -0.7128666043281555], [0.7439367771148682, 1.832371711730957, -0.6529326438903809, -1.5402559041976929, 0.7576215863227844, 2.2855923175811768, -0.033567991107702255], [-0.1635584980249405, 1.0613558292388916, 0.4400956630706787, 0.49506378173828125, 1.110548496246338, 0.10025393217802048, -0.9265150427818298], [0.29471370577812195, 1.0747389793395996, -0.2206254005432129, -1.0895421504974365, 0.7326344847679138, 1.1275506019592285, 0.41414642333984375]], [[-0.27582868933677673, -0.09602846205234528, -1.0124592781066895, -0.08875644207000732, 0.08108331263065338, -0.18428368866443634, 0.48092666268348694], [0.6863327026367188, 2.4863622188568115, 0.5414387583732605, -1.7666711807250977, 0.6160846948623657, 0.5046370029449463, 0.5754021406173706], [0.39874786138534546, 0.8706991076469421, 0.22980545461177826, 0.2471722811460495, -0.39002129435539246, 0.15911151468753815, 0.903236985206604], [-0.4735603630542755, 0.11858749389648438, 2.3254613876342773, -1.4224812984466553, -0.13228467106819153, 1.7200660705566406, -0.6039309501647949], [0.8540164232254028, 0.957260251045227, 1.6339049339294434, -0.2551063895225525, 0.6194407343864441, 0.5004543662071228, -0.4595223665237427], [0.11959793418645859, 1.163400411605835, 1.1616746187210083, -1.4167125225067139, -1.0745937824249268, 0.8237926959991455, -0.5908353924751282], [-0.2421897053718567, -0.840114414691925, 1.047527551651001, 1.1504377126693726, -1.0670908689498901, 1.2193806171417236, -1.0402076244354248]], [[-0.267063170671463, -1.7932696342468262, -0.003694244660437107, -0.30010780692100525, -1.095895767211914, -0.7212504148483276, 0.95406174659729], [2.575826644897461, -0.3890756368637085, -0.22888194024562836, 1.193354606628418, 0.11640883982181549, -1.580886960029602, 0.026082076132297516], [-1.3231881856918335, -0.8132402300834656, -0.18628202378749847, 0.6849349737167358, -0.24631355702877045, 1.2598434686660767, 0.6114476919174194], [0.6019362211227417, -0.3978850543498993, 1.2584686279296875, -0.10478382557630539, 1.0776842832565308, 0.47493380308151245, -1.1644216775894165], [0.42704910039901733, -2.190565586090088, 0.8716567754745483, -0.13273794949054718, -0.09592559188604355, -0.8091692328453064, 0.19224080443382263], [-0.7468634843826294, -0.37713930010795593, -1.1262105703353882, -0.34702879190444946, 0.7336998581886292, 0.323198139667511, 0.39774587750434875], [1.2321228981018066, -0.039048630744218826, 0.7475646734237671, 1.3971643447875977, -1.329254388809204, 0.624862790107727, -0.8046230673789978]]], [[[-1.3967030048370361, 0.7013922929763794, 0.9483722448348999, 1.6290578842163086, -1.2890527248382568, -0.65570068359375, 0.1402674913406372], [0.7907302975654602, 0.7976858615875244, 1.0781668424606323, -0.11383450031280518, -0.6806398034095764, 0.3106543719768524, 0.055413611233234406], [-0.310493528842926, -1.3054590225219727, 1.342253565788269, 0.8632311820983887, -0.1572072058916092, 0.9669344425201416, 1.013729214668274], [-1.0780638456344604, 0.92437344789505, -0.7375856041908264, -1.2349231243133545, -0.870781421661377, 0.49299925565719604, 0.3264288902282715], [-0.1907847672700882, 0.06808243691921234, 0.922433078289032, 1.6663066148757935, -0.4805029630661011, 0.4634553790092468, -0.6797029972076416], [0.16267257928848267, -0.7264894247055054, -1.0547990798950195, -0.20152312517166138, -0.4476383924484253, 2.99725341796875, 0.0990055575966835], [0.43299564719200134, -1.2601314783096313, -1.266495943069458, -3.210935592651367, 1.0594680309295654, 1.3821892738342285, -1.0863834619522095]], [[-0.3341521620750427, -0.8296208381652832, 0.12010642141103745, 1.1108241081237793, 0.47916853427886963, -0.5491953492164612, 0.36470621824264526], [0.22569701075553894, -0.8291294574737549, 0.5938976407051086, 0.9757583737373352, 1.2185133695602417, -1.0220069885253906, -1.3006571531295776], [0.7007445693016052, 0.2502354681491852, -0.6906551122665405, -0.8255734443664551, 0.3413448631763458, -1.0554280281066895, 0.4224083423614502], [0.055559370666742325, -1.0934983491897583, -1.9044286012649536, 0.14978791773319244, 1.05014967918396, 1.1027439832687378, -0.7933977246284485], [1.4913936853408813, -0.3789690434932709, 1.0415544509887695, -0.8015666007995605, 1.1850295066833496, 0.5111097693443298, -0.13709145784378052], [0.1304258108139038, -1.7356384992599487, 1.4585095643997192, -0.617411732673645, -0.4534682333469391, 0.015562363900244236, -0.09458578377962112], [0.09705158323049545, 0.49885571002960205, -0.8434362411499023, -0.28498557209968567, -0.5667039752006531, -1.2765130996704102, -1.5921884775161743]], [[0.566281795501709, 1.4956806898117065, 0.30464932322502136, -0.681501567363739, -0.053832124918699265, 0.8211989402770996, -1.0810199975967407], [-0.9717034101486206, 1.1452343463897705, 0.8884235620498657, -0.17921769618988037, -1.0191946029663086, -0.738532304763794, 0.31885871291160583], [3.0168631076812744, 0.4866879880428314, 1.489006757736206, -0.3484896421432495, -2.3261611461639404, 0.22956275939941406, 0.8682030439376831], [-0.22399142384529114, 1.273584246635437, 1.0874207019805908, -0.9801287651062012, -0.2921743094921112, 0.3371330499649048, -1.5695856809616089], [-1.117254614830017, 0.6576407551765442, -0.03340938314795494, -1.3134311437606812, -0.24784593284130096, -0.7380189895629883, 0.5144232511520386], [-0.8277781009674072, -0.21152299642562866, 1.2832468748092651, 1.464180827140808, 0.61414635181427, 0.049077343195676804, 0.2465585619211197], [0.5710272192955017, -0.22733603417873383, 0.8678427338600159, 1.3442875146865845, 0.6290016174316406, 0.4319708049297333, -0.22546134889125824]]], [[[-0.38521429896354675, 0.2902839183807373, 0.28227537870407104, -0.42842891812324524, -1.0767743587493896, 0.1097801998257637, -0.31706950068473816], [-1.3070158958435059, 0.13796073198318481, -0.6076785922050476, 0.200314462184906, 0.927900493144989, -0.1887352466583252, 0.08818705379962921], [-0.6460142731666565, 0.7210925817489624, 1.36496102809906, 1.464553713798523, -0.6208712458610535, 0.40057000517845154, -0.19164058566093445], [1.2899165153503418, 1.385086178779602, 0.9649431705474854, 0.6502681374549866, 0.26831281185150146, 1.5873667001724243, -0.3652552366256714], [-1.630043864250183, -0.273526668548584, 0.7857853174209595, -1.0087426900863647, 0.5351418256759644, 0.4044288396835327, 0.12678521871566772], [-0.8192504644393921, 0.9508339166641235, -0.0014425673289224505, 1.642618179321289, 1.6291701793670654, -0.5849095582962036, -0.40042945742607117], [-0.7219313383102417, 0.4273831248283386, 0.42886218428611755, 0.6510704159736633, -0.0287630595266819, 0.4840638041496277, 1.1475387811660767]], [[-0.3566166162490845, 0.32460352778434753, -1.8894987106323242, 0.22027228772640228, 1.4606863260269165, -0.1752716302871704, -2.149432420730591], [0.40147924423217773, 0.4435187876224518, 1.5384587049484253, 0.39691999554634094, -0.8620279431343079, 0.5404331684112549, 0.40706008672714233], [-0.2268284112215042, 0.5552161335945129, -0.9866716861724854, 0.7578805685043335, 0.11848480999469757, -0.4987212121486664, 0.7695237994194031], [0.7756087779998779, 0.08614062517881393, 0.13793691992759705, -0.4285457134246826, -0.4173699617385864, -0.6129417419433594, 1.4206585884094238], [-1.1941744089126587, 0.2587619125843048, -0.07822933793067932, 0.34984925389289856, 1.6729496717453003, 1.8286181688308716, -0.6069114208221436], [0.9413266181945801, 1.1024060249328613, -1.0621734857559204, 0.41722285747528076, -0.7436484694480896, 0.43020662665367126, -0.08747869729995728], [-1.44841730594635, -0.5516613125801086, -0.6964998245239258, -2.205967664718628, 0.21799403429031372, -0.12405764311552048, 0.6475255489349365]], [[-2.1252613067626953, 1.6639498472213745, 0.4781949818134308, -0.9735927581787109, -0.6109839677810669, 0.11478032916784286, 0.7060639262199402], [0.8339996337890625, 0.3944067358970642, 0.368105411529541, 1.171242356300354, 1.5314441919326782, -0.7398238182067871, 1.0023512840270996], [0.5176045894622803, 0.11043700575828552, -0.7291945815086365, 1.1243079900741577, 0.7421962022781372, 0.9334479570388794, 1.0433207750320435], [-0.6231339573860168, -0.7108739614486694, -1.5596650838851929, 0.33061888813972473, 1.1799713373184204, -0.03835788369178772, -0.3127997815608978], [-0.9186887741088867, -0.7403078079223633, 0.7648075819015503, 1.5245822668075562, 0.3408152461051941, -1.1304386854171753, -0.5010781288146973], [0.7217975854873657, -0.16723641753196716, 0.9060432314872742, -0.006658884696662426, -0.7521740198135376, 0.7301064133644104, 0.06884917616844177], [-2.508453845977783, 0.5017135143280029, -0.09604816138744354, 0.7806349396705627, 1.2141728401184082, -0.18487170338630676, 2.7099008560180664]]], [[[0.22054514288902283, -0.563418447971344, 0.5307902693748474, -0.32585206627845764, 0.6458211541175842, -1.214935541152954, 0.5078790783882141], [1.4092730283737183, -0.4322895109653473, 1.4241572618484497, 0.9619606733322144, 0.40550053119659424, -0.03857581317424774, 0.4435217082500458], [-0.6302776336669922, -0.8999877572059631, 0.40630990266799927, -0.2820485532283783, -0.8499496579170227, 1.249890685081482, 0.26820307970046997], [1.837321162223816, 0.18148891627788544, 0.5975962281227112, 1.500981092453003, -0.49934637546539307, -0.12033084034919739, 1.8489577770233154], [0.48715198040008545, -1.4105273485183716, -0.3031103312969208, -0.27128639817237854, 0.23399293422698975, -1.7030210494995117, 1.3524807691574097], [-0.5716425180435181, -0.7543187737464905, 0.4814554750919342, 0.8137317895889282, -0.1277158409357071, -0.25116631388664246, 0.4321550726890564], [0.04294152930378914, 0.2562471926212311, -0.8503648042678833, -0.31356146931648254, -0.001951762242242694, -1.7440694570541382, 0.5543419718742371]], [[-0.04614386335015297, 0.9797635078430176, -0.003595333779230714, -1.396809458732605, -0.641606330871582, 0.8238017559051514, 1.0758986473083496], [0.21471120417118073, 1.8392280340194702, -0.052307967096567154, -1.1361544132232666, 1.4123786687850952, 0.2601046860218048, -0.2680239975452423], [1.4937918186187744, -1.7981643676757812, -1.4553279876708984, 0.6281179785728455, -0.6827350854873657, -0.5879660844802856, -1.1910433769226074], [-0.08149730414152145, 1.6103157997131348, -0.9835451245307922, -0.012567542493343353, 0.739591658115387, -0.6436848640441895, 0.5292178392410278], [-1.0580410957336426, -0.650977611541748, -0.43087923526763916, 1.60618257522583, -0.02591692842543125, -0.08360152691602707, 0.572357714176178], [0.32455965876579285, -0.47957608103752136, -0.8223033547401428, 0.9693257212638855, -1.3439445495605469, 1.135171890258789, 1.4591957330703735], [-0.23476038873195648, 0.3496796786785126, 0.6351856589317322, -1.0358859300613403, 0.1924210786819458, 0.8630872368812561, 1.4254229068756104]], [[-0.848205029964447, -0.8266471028327942, -0.2473609745502472, 0.6827428936958313, 2.6409575939178467, -0.8258430361747742, -2.882819175720215], [0.48792484402656555, 0.5142756700515747, 0.0841289758682251, -0.17083309590816498, -0.6668443083763123, 1.1705656051635742, -1.1637316942214966], [-0.42702046036720276, -0.2672920227050781, -1.5211777687072754, -1.3611557483673096, 1.7529757022857666, -0.8059381246566772, -0.9904078841209412], [0.18984286487102509, 0.6395724415779114, -1.5504118204116821, 0.10160082578659058, 0.9367750287055969, -0.6783006191253662, -0.478435754776001], [-0.312514990568161, 0.2563712000846863, -1.7580822706222534, -0.7998751401901245, -0.8339858055114746, -0.4114159643650055, 0.3934062719345093], [0.6102506518363953, 1.2114930152893066, 0.6305197477340698, 1.4582345485687256, 0.5464528799057007, -1.995281457901001, 1.5631141662597656], [0.6275757551193237, -0.6542388200759888, 1.5663052797317505, -0.5763311386108398, 0.7411119937896729, 1.092930555343628, 0.2510100305080414]]], [[[-0.4942832291126251, -1.4212331771850586, 1.7868828773498535, -1.5478432178497314, -0.9052334427833557, 0.07882817089557648, -1.4304579496383667], [-0.4846706688404083, -0.017267271876335144, 0.03538016229867935, 1.8060778379440308, 0.9402006268501282, 0.7572915554046631, 0.43248796463012695], [-1.3146367073059082, 0.3048988878726959, -1.6280360221862793, 0.6108306050300598, 2.01163387298584, 0.5588897466659546, -0.5938103795051575], [0.3712582290172577, -0.2626723349094391, 1.099158525466919, 1.2110958099365234, 0.4472273290157318, -3.432691812515259, -2.250979423522949], [0.7550042271614075, 0.32684341073036194, 1.8980768918991089, -0.2133079618215561, 0.5882001519203186, 1.2238967418670654, -1.896376371383667], [1.1265790462493896, 0.3194926083087921, -0.8446893692016602, -1.4030522108078003, 1.1128289699554443, 0.16443423926830292, -0.9613040685653687], [-1.2780287265777588, 0.5462475419044495, -0.8577687740325928, -1.0677120685577393, 1.4302219152450562, -0.44419005513191223, -0.7474672198295593]], [[-0.8652740716934204, 0.5363028645515442, -0.2838210463523865, -0.7638360261917114, 0.2776230275630951, 0.6124525666236877, -2.093937635421753], [0.31365326046943665, -1.1771433353424072, -0.9941319227218628, 1.8822561502456665, 0.12737616896629333, 0.11114495247602463, -0.036603596061468124], [-2.348740816116333, 1.409004807472229, 0.961872398853302, -0.07582172006368637, -0.43060699105262756, 0.8406465649604797, 0.00034073242568410933], [-0.555071234703064, -0.16508334875106812, -0.2595304250717163, -0.9992958307266235, 0.7330635190010071, 1.5558990240097046, -0.19220435619354248], [-0.6628488302230835, -0.8372334241867065, 0.2870851159095764, 0.9630652666091919, 0.11110609024763107, 0.06644424051046371, 0.1686256378889084], [-0.2606925070285797, -0.3586352467536926, 2.0578832626342773, -0.8437814116477966, 1.4288603067398071, 1.756079912185669, 1.1049917936325073], [-0.8043172955513, 0.8727012276649475, -0.36077043414115906, 0.2708836793899536, -0.3043714165687561, 0.24013963341712952, -3.065650224685669]], [[-1.6599299907684326, -1.7597140073776245, -0.33071115612983704, -1.0129071474075317, -0.6682239770889282, -0.656587541103363, -1.200944185256958], [1.9691126346588135, 0.10664313286542892, -0.5374879837036133, 0.8863353133201599, 1.09186851978302, -1.6167398691177368, 0.8275448083877563], [1.6965446472167969, 0.25248703360557556, 0.387627512216568, 1.0268924236297607, 0.13117583096027374, 1.7312113046646118, -0.5775328278541565], [-2.60663104057312, -1.1603494882583618, 0.031312014907598495, 0.5981863141059875, -1.2028403282165527, -0.4056509733200073, -0.7370465397834778], [-0.6733580231666565, -0.6830328702926636, 0.20825909078121185, -0.3080838918685913, 0.371349036693573, -0.36544543504714966, -0.12885808944702148], [0.17285574972629547, -1.0168431997299194, -0.34991687536239624, -0.1437944918870926, 2.4039149284362793, 0.3585010766983032, -0.722877562046051], [-0.5558978915214539, 1.0590623617172241, 0.7412910461425781, 0.6010369658470154, 0.22447477281093597, -0.6572508811950684, -0.2036484330892563]]], [[[-0.4896453320980072, -0.6581522226333618, -0.388460636138916, -2.1071062088012695, 0.927179753780365, -1.1961872577667236, 0.22875531017780304], [-0.6205131411552429, -0.5925042033195496, -1.1170958280563354, -0.08133213222026825, -0.8625707030296326, 0.8592841625213623, 0.23829162120819092], [0.10511798411607742, 0.544702410697937, -0.7956019043922424, 1.4500311613082886, -0.5526679158210754, 0.22310905158519745, 0.9434695243835449], [-0.6744885444641113, -0.09326823800802231, -1.1175307035446167, 1.1430010795593262, 0.24248111248016357, 1.6822320222854614, 1.3378055095672607], [-0.39985474944114685, 0.9335008263587952, -0.5381518006324768, -0.222918301820755, 2.3531382083892822, -0.6273185610771179, 1.295226812362671], [-0.25005531311035156, 0.7818360924720764, -1.5643551349639893, 0.35351330041885376, -0.18368403613567352, -2.097508430480957, -0.4075273871421814], [-0.43365412950515747, 0.026383452117443085, -0.1330946832895279, -1.393373727798462, -0.832248866558075, -0.49843722581863403, 1.071333885192871]], [[-0.19127295911312103, 1.4170504808425903, -1.3671834468841553, -0.44583266973495483, 0.2532579004764557, 1.8843551874160767, -0.11726697534322739], [0.9778902530670166, -0.21467769145965576, -1.7087373733520508, -1.4882031679153442, -0.6066372394561768, -0.35542553663253784, 2.2071313858032227], [0.06387487053871155, -1.1988537311553955, 0.47196799516677856, -1.4675241708755493, -0.4810725748538971, -1.144999384880066, 2.726125717163086], [0.16831499338150024, -0.415269136428833, -1.7497638463974, -2.233663320541382, -1.63860023021698, 0.5880606174468994, -0.598951518535614], [0.975398063659668, -0.1496528685092926, -1.0331785678863525, 0.4843469560146332, 1.6667977571487427, 0.1750272512435913, -0.5031061768531799], [-0.3509448766708374, -0.4561479389667511, -0.9224787354469299, 0.3167339563369751, -0.39671486616134644, 0.12573236227035522, 0.851934552192688], [1.085656762123108, 0.3967227339744568, 1.5832993984222412, 1.5043599605560303, 1.9039318561553955, -0.9796416759490967, 1.1635501384735107]], [[-0.19548232853412628, 0.01975167915225029, 0.843808650970459, 1.5445235967636108, -1.0222020149230957, 0.3271123170852661, 2.5562474727630615], [-1.5776865482330322, 1.0162029266357422, 0.5437750816345215, -1.985034704208374, -0.6653543710708618, -1.2221324443817139, -1.0427682399749756], [-1.190686821937561, -0.06486605107784271, 0.5790472030639648, 2.291710376739502, -0.8081005215644836, 0.13299678266048431, -1.1816225051879883], [-0.5392033457756042, -1.3029756546020508, -1.9131097793579102, -0.9407328963279724, -1.5579913854599, 2.418773889541626, 1.470507025718689], [-0.5305541157722473, -1.1362839937210083, 0.8018178939819336, -0.9760489463806152, 0.85997074842453, -1.2839192152023315, -0.3027364909648895], [-0.5919676423072815, 1.94864022731781, -0.5994930267333984, 0.13106130063533783, -0.4415712356567383, -1.0445811748504639, -0.9334204792976379], [1.215773105621338, -0.1778450608253479, 0.21683448553085327, 0.9328450560569763, -1.7393927574157715, 0.38341259956359863, -0.8137261271476746]]], [[[0.006700458936393261, -0.6688287258148193, -1.150323510169983, 1.0286813974380493, 0.34247344732284546, -0.021298861131072044, -0.6199512481689453], [1.1681852340698242, 1.0112096071243286, -0.18277336657047272, 1.381237506866455, 1.1737916469573975, 0.4670376181602478, 0.3041892647743225], [-0.08241749554872513, -0.24028633534908295, -1.6203629970550537, -0.5191551446914673, -1.6178836822509766, 0.530565619468689, 0.9099370241165161], [1.541195273399353, 0.18206922709941864, -0.33437222242355347, 1.3366025686264038, 0.6801517605781555, 0.4496457278728485, -0.6315192580223083], [-0.32837942242622375, 0.39351996779441833, -2.526811122894287, -0.6742613315582275, -0.3435344994068146, 0.06027575582265854, 0.14405788481235504], [1.5178471803665161, -0.611828088760376, 0.1547117531299591, 1.7260469198226929, -1.043601393699646, 0.07035896182060242, -0.1348632276058197], [-0.46978527307510376, 0.21208436787128448, 0.2341313511133194, -0.4208109676837921, -0.062335655093193054, 0.4420726001262665, 0.04032440856099129]], [[0.26552268862724304, 0.058597665280103683, -0.8219062089920044, -1.4755252599716187, 0.9702013731002808, 0.8942247629165649, 0.44042012095451355], [-2.0835278034210205, 1.1045119762420654, 1.4633687734603882, 0.07541555166244507, 0.036199912428855896, 0.22311243414878845, -0.40217939019203186], [0.5130014419555664, -0.7601045966148376, 1.4354766607284546, -0.349144846200943, 1.4601792097091675, -1.5280580520629883, 1.7315629720687866], [-0.1057148352265358, 1.654613971710205, 0.4270109534263611, 0.7217310070991516, 0.7843012809753418, -0.8637524843215942, -0.37406232953071594], [2.0264928340911865, -0.7312183380126953, -0.2136826068162918, -0.8944867849349976, -0.46877220273017883, 0.347557932138443, -0.51846843957901], [-0.41204753518104553, 0.7667766809463501, -1.6077618598937988, 0.8264495730400085, -1.416976809501648, -1.9173706769943237, -0.2873581051826477], [-0.13909943401813507, -0.7598403096199036, 1.1488697528839111, -1.1540428400039673, 0.8116928935050964, 0.3795512914657593, 1.2677842378616333]], [[-0.5042084455490112, 1.7212311029434204, -0.11724226176738739, 1.7017000913619995, -2.493032693862915, -0.9991191625595093, -1.862918496131897], [0.5061367750167847, -0.43454310297966003, 1.1707433462142944, 0.08930959552526474, -2.3308796882629395, -0.16645459830760956, 0.3826746344566345], [-0.051874544471502304, 0.7666367292404175, 0.06407641619443893, 0.23919282853603363, 0.7777003645896912, 0.6904950737953186, 0.9186971783638], [1.3307056427001953, 0.38908687233924866, -0.4078201651573181, -0.23303979635238647, -0.798787534236908, -0.9957427382469177, 0.7696334719657898], [0.5901322960853577, 0.7875258326530457, -0.7634626626968384, 0.9589205980300903, -0.7259179353713989, -0.04232632741332054, 0.7888793349266052], [0.13540901243686676, 1.5957618951797485, -0.41741496324539185, -0.7963147759437561, -1.3763657808303833, 0.08718658983707428, 0.4582037329673767], [-0.12212081253528595, 1.2878172397613525, -0.5276558995246887, -1.2718563079833984, -1.026080846786499, -1.1138914823532104, 0.45912864804267883]]], [[[-1.150345802307129, 0.5844194889068604, 0.7958452105522156, 0.5570046305656433, -0.01001917663961649, -1.2499293088912964, -1.115126371383667], [0.825285017490387, -0.06793975085020065, 0.10423598438501358, -0.29632800817489624, -2.5479960441589355, -0.7005301117897034, -0.5155352354049683], [-1.7934356927871704, -1.0866999626159668, -1.0805206298828125, 2.2336864471435547, 0.753179669380188, -0.4196206331253052, -0.7372022867202759], [1.3567167520523071, 0.04239029437303543, 1.1871647834777832, 0.8367776870727539, -0.9616316556930542, -0.6261881589889526, -0.802487313747406], [1.325985312461853, -0.31029650568962097, -0.4071151316165924, -0.4926583170890808, 1.0611218214035034, -0.6746428608894348, 0.5150929093360901], [-2.0039005279541016, -0.7916861176490784, 0.4265787899494171, 0.36366358399391174, 1.3701541423797607, 1.1880336999893188, 0.43667688965797424], [0.3075631558895111, -2.248692035675049, 0.3522864282131195, -0.6738181710243225, -1.6666783094406128, -0.7892877459526062, -0.43123090267181396]], [[0.19212603569030762, 0.8693800568580627, 1.1327884197235107, 1.067992091178894, -0.20620863139629364, -0.13543526828289032, 1.0402592420578003], [-0.7244226932525635, -1.6934354305267334, -1.5092674493789673, -0.5171525478363037, -0.6154494881629944, 0.9434732794761658, -1.8198506832122803], [0.4489923119544983, 2.003584384918213, 0.5158055424690247, -0.043641213327646255, -0.28297147154808044, 0.7978860139846802, 0.7990416884422302], [-0.029644150286912918, 2.2636072635650635, -0.12170818448066711, -0.3108576834201813, 1.9717117547988892, 0.5426490306854248, 0.8208761215209961], [0.8868271708488464, -0.427707701921463, -0.15425404906272888, 0.4352755844593048, 0.18111449480056763, -0.3600209355354309, -0.28640908002853394], [0.9209061861038208, -0.6270257830619812, -0.26073017716407776, -0.701092541217804, 0.4698355495929718, -0.0528271459043026, -0.19030478596687317], [-0.4703930616378784, -0.30836400389671326, 0.6048784852027893, 0.6126903295516968, 0.266431599855423, -0.20945405960083008, -0.3963363766670227]], [[-0.34755370020866394, -0.9395375847816467, 1.4788625240325928, 0.5822917222976685, 2.7749834060668945, -0.5976664423942566, -0.7450824975967407], [0.7148945331573486, 0.07200083881616592, 1.0002636909484863, 0.2266162484884262, 0.5993492603302002, 0.4842669665813446, 1.2267560958862305], [-0.7207085490226746, -0.5886580944061279, -0.8390224575996399, -1.2865583896636963, 0.6104350686073303, 0.8026418089866638, -1.509824275970459], [0.6446495652198792, 1.018273115158081, 0.9518939256668091, 0.961346447467804, 0.323184072971344, 0.4854598939418793, 0.8368238806724548], [-1.1394197940826416, -1.235337495803833, 0.3302770256996155, 0.6704791784286499, 0.21295973658561707, 0.9655654430389404, -1.9798920154571533], [-2.0223922729492188, 1.9100981950759888, -0.3533681035041809, 0.8341023325920105, 0.1652703881263733, 0.7498299479484558, -0.2812321186065674], [0.1160937026143074, -0.03437385335564613, 0.5513508915901184, 0.750390350818634, 1.635733723640442, 2.1589813232421875, 0.05414685606956482]]], [[[0.1855449676513672, 0.09015562385320663, -0.06342027336359024, 0.01855098269879818, -0.7755971550941467, 1.1390267610549927, 1.169161081314087], [0.1478501707315445, 0.02552236244082451, -0.09007125347852707, 0.08759655058383942, 1.9435845613479614, 0.3979998826980591, 1.2547509670257568], [-1.3701554536819458, 2.4779365062713623, -1.525460124015808, -0.020435141399502754, -0.811920166015625, 0.17518150806427002, -0.5928270816802979], [-0.9013867974281311, -1.095738410949707, 0.27954772114753723, 0.08792880177497864, -0.9647831916809082, -0.14714494347572327, 1.0995616912841797], [1.104038953781128, -2.399658679962158, 1.918468713760376, 1.2280933856964111, 0.38219475746154785, -0.13412384688854218, 0.73952317237854], [1.9301707744598389, -0.8193877339363098, 0.012582611292600632, -0.5831375122070312, -1.818515419960022, -0.5714383721351624, 0.8445422649383545], [0.04956858232617378, 1.5581867694854736, -0.6243975758552551, 0.22376090288162231, 0.5969453454017639, 0.47964534163475037, -0.17344866693019867]], [[-1.0272624492645264, 0.09174906462430954, -2.110131025314331, 1.960578441619873, 0.8311647772789001, 1.0029182434082031, 1.4881970882415771], [0.041873447597026825, -1.8276546001434326, -0.47246381640434265, -1.6810084581375122, 1.773314356803894, 0.6925898194313049, 0.2231830209493637], [-1.1812825202941895, 0.40350142121315, -0.1606333702802658, 1.4449002742767334, -1.6413217782974243, -0.6883319616317749, -0.7589895725250244], [0.617036759853363, -0.13119184970855713, 0.9784519076347351, -0.2901373505592346, 0.12188342958688736, -1.111332893371582, 1.334380865097046], [0.292456716299057, 0.16221153736114502, -1.1054978370666504, 0.36310282349586487, -0.07475832849740982, 0.9218674898147583, -0.9320055246353149], [0.8335038423538208, -0.17699339985847473, -1.5709854364395142, 0.2120029628276825, -0.9441560506820679, -1.1006706953048706, -2.0403239727020264], [1.2970463037490845, -0.7590444684028625, 0.23677411675453186, -0.19541916251182556, 0.08460075408220291, 0.9367995858192444, 2.971956968307495]], [[-1.28529953956604, -1.1805517673492432, -0.34412139654159546, -0.20186367630958557, -0.8875246047973633, -0.8993116617202759, -1.1541417837142944], [-0.792934238910675, -0.946670413017273, 0.6321598291397095, 0.8206123113632202, 0.06389206647872925, 0.22849160432815552, -0.21648092567920685], [0.3336388170719147, -0.03700152784585953, 0.7467969655990601, -1.4661445617675781, 0.44512516260147095, 0.6174202561378479, -1.5983723402023315], [-1.1798920631408691, -0.41296684741973877, 0.1763627529144287, 1.0556952953338623, -0.12021487206220627, -0.7553163766860962, -0.861990749835968], [0.036451712250709534, -0.6781705021858215, -0.24800896644592285, -0.3872261643409729, 0.11766397207975388, 0.3024614751338959, 0.3525615930557251], [1.9886195659637451, -0.7666321992874146, -0.12222951650619507, -0.8986520171165466, 0.8525261282920837, -0.19117702543735504, -0.03314240276813507], [0.5001163482666016, 1.4627333879470825, -0.550439178943634, -2.2136149406433105, 0.006861367262899876, 0.7795441150665283, -0.6922211050987244]]], [[[0.5713387131690979, 0.6705445051193237, -1.1560912132263184, 0.6683428883552551, -0.022037828341126442, 1.0889003276824951, 0.8599595427513123], [1.5227357149124146, -0.6742991805076599, 0.37036949396133423, -0.6336312294006348, -1.1926257610321045, 0.630728006362915, 2.2376787662506104], [0.5679380893707275, -1.9230592250823975, 0.31493252515792847, 1.5911264419555664, -1.079970121383667, 0.9001262187957764, -0.43459373712539673], [-1.2652254104614258, 1.263109564781189, 2.135824203491211, 0.17181265354156494, -0.3353823721408844, -1.653183937072754, -0.7229927778244019], [-0.3590122163295746, 2.075549364089966, 0.7930616140365601, -0.7664575576782227, 0.054783016443252563, 0.8880110383033752, -0.36675480008125305], [-1.429041862487793, -0.03228316828608513, -1.9739903211593628, 0.7682511806488037, 1.099327802658081, -0.17177356779575348, -0.011378902941942215], [-0.7261093258857727, -0.659110426902771, 0.1838403344154358, 0.8991357088088989, -0.6863003373146057, 1.3280739784240723, 2.3873491287231445]], [[0.2748779058456421, -1.1341745853424072, -0.6460174918174744, -1.5740176439285278, 0.39018580317497253, -0.1831258237361908, -0.11904894560575485], [0.9174669981002808, 0.041079916059970856, -0.03178277611732483, -0.7256832122802734, 0.21244975924491882, 1.1649858951568604, 2.216898202896118], [-0.11065048724412918, 0.061481721699237823, -0.7161767482757568, -0.08552271872758865, -0.6309833526611328, 0.7664405703544617, -0.00858845841139555], [1.5335445404052734, -0.6868089437484741, 1.0239577293395996, 0.6872125864028931, 0.8804528117179871, -0.6449379324913025, -0.24515895545482635], [0.6362380981445312, -0.48257628083229065, 1.0820411443710327, -0.40049487352371216, 0.7102281451225281, -1.7168511152267456, -0.24143439531326294], [-0.15217562019824982, 0.19987091422080994, 0.09314727783203125, 0.8311343193054199, -0.1914050579071045, -0.40524375438690186, 0.6815515756607056], [0.40146833658218384, -2.008983850479126, 0.8230138421058655, -1.3716498613357544, -0.26978418231010437, 0.7360538840293884, 1.3182432651519775]], [[0.5684104561805725, 0.005992452148348093, -0.4333442747592926, 0.3283601701259613, 0.15295091271400452, -1.0852246284484863, 0.7608944773674011], [-2.099634885787964, 0.10503219813108444, 0.20517635345458984, -1.3682582378387451, 0.1769757866859436, -1.7854434251785278, -1.628928542137146], [1.1551897525787354, 1.295223355293274, 2.1014766693115234, -0.6622028350830078, -1.0126224756240845, 0.14383897185325623, -0.5808732509613037], [-1.2172167301177979, -1.8254261016845703, 2.342564105987549, -0.9959239959716797, -2.308786153793335, -0.2634493410587311, -0.18218004703521729], [-0.369215726852417, -1.886942744255066, -0.7572749853134155, -1.342147707939148, -0.6736641526222229, -0.15731382369995117, 2.0068359375], [-1.345191240310669, 0.5180612206459045, 0.28335878252983093, 1.9130154848098755, -0.5541819334030151, 0.4954385459423065, -0.7893614172935486], [-1.1950743198394775, -0.5036998987197876, -1.3586236238479614, 0.3338499069213867, -0.4680532217025757, -0.35134458541870117, -1.497086763381958]]], [[[-0.2951123118400574, -0.47493091225624084, -0.18048463761806488, -0.84642094373703, 0.7033715844154358, -0.36788591742515564, 0.9535885453224182], [-1.4883761405944824, 0.027548719197511673, 1.082550287246704, 0.01909453421831131, 0.701421320438385, 0.8063631653785706, 0.5073042511940002], [-1.0003290176391602, 0.9569980502128601, 1.5557458400726318, 1.6322011947631836, -0.8394696116447449, 1.9154733419418335, -1.2481865882873535], [-1.8969883918762207, -0.013635732233524323, 0.7479149699211121, -0.5914618968963623, 0.5948227643966675, 0.1186513751745224, -0.8755863308906555], [-0.5555803179740906, -0.5225567817687988, -0.32913604378700256, 0.012811880558729172, 0.6705024838447571, -0.5442509651184082, -0.12949010729789734], [-1.4634453058242798, -0.7311496138572693, 1.0837093591690063, 0.3912522792816162, -0.8313462138175964, 0.33673250675201416, -0.2859073281288147], [-1.4095746278762817, -0.47927072644233704, 0.9883415102958679, -0.32664796710014343, -0.13699176907539368, -0.3279215097427368, -0.5758727788925171]], [[-0.15234993398189545, -0.6920253038406372, 0.04830941557884216, 0.49074652791023254, -1.6955318450927734, -0.6632329821586609, 0.24604006111621857], [-1.9984965324401855, 1.1072133779525757, -0.7926372289657593, -1.3333841562271118, 0.815136194229126, 0.6050534844398499, -0.7053163051605225], [0.40711867809295654, -0.2430301457643509, -0.07640734314918518, 1.717992901802063, 1.2562220096588135, 0.3527998924255371, 1.5814810991287231], [-0.23407816886901855, 0.8172763586044312, -0.5239410996437073, -0.6754378080368042, 0.3370518088340759, 1.111184000968933, -0.8421499133110046], [-0.6899225115776062, -1.902734398841858, 0.27031248807907104, 2.3308463096618652, -0.4514382779598236, 0.783500075340271, -1.2136917114257812], [0.05793919786810875, 1.694048285484314, 1.3536478281021118, -1.0269279479980469, 2.9992129802703857, -1.1324739456176758, -0.4211386740207672], [-2.4799628257751465, -0.49080270528793335, 0.7356848120689392, -0.9804742336273193, -0.6172429323196411, -0.05263389274477959, -0.09716199338436127]], [[0.29977959394454956, -0.47375500202178955, 0.5842946767807007, 1.5122829675674438, 0.2559194266796112, -0.7842578887939453, 1.3049262762069702], [1.2491391897201538, -1.1675386428833008, 1.8203504085540771, 0.5583513379096985, 1.0431280136108398, -1.0663166046142578, -2.3955979347229004], [0.6797925233840942, 0.2744331955909729, 0.4891618490219116, -0.06446169316768646, 1.6605556011199951, -1.1014299392700195, -0.27329400181770325], [0.08912433683872223, -0.12872524559497833, 0.874045193195343, -1.5894056558609009, -0.7687512636184692, -0.5310220718383789, 1.9963310956954956], [0.6009951233863831, -0.5822651982307434, -0.2128315567970276, 0.16184861958026886, -0.6818069815635681, 0.5214458703994751, -1.5878338813781738], [0.02883048728108406, 0.13412357866764069, 0.8904308080673218, 0.10243634134531021, 1.8109632730484009, 0.2544846832752228, -0.8712359666824341], [-0.8447852730751038, -0.020154917612671852, 0.7604541778564453, -0.40195393562316895, 0.8895548582077026, -0.055144768208265305, -0.44300377368927]]], [[[0.526845395565033, -0.7478086352348328, -0.12463251501321793, -1.1023662090301514, -0.19867157936096191, 1.5832068920135498, -0.9759265780448914], [0.7732459306716919, -1.0808228254318237, 0.012628806754946709, 0.7120026350021362, 0.5996496081352234, 0.4821648597717285, -0.5338600873947144], [0.38132840394973755, -0.2544376850128174, 0.6979879140853882, -0.05118633061647415, 1.0958505868911743, -2.140855550765991, -1.4349454641342163], [-0.3958342373371124, 0.20536786317825317, 1.8610132932662964, 2.603053092956543, 0.021624000743031502, 1.5585448741912842, -0.09808309376239777], [-0.7724123001098633, -0.26351624727249146, 0.6208290457725525, 1.0614248514175415, 0.8041247129440308, 0.10137326270341873, 0.8462520241737366], [-0.8950974941253662, -0.9416390061378479, -2.7561771869659424, -0.14783678948879242, -1.313966989517212, -1.7454166412353516, -0.4677617847919464], [0.4321226179599762, 0.2519230246543884, -1.5054125785827637, -0.8292582035064697, 0.1995188593864441, -0.9883947968482971, -1.2928297519683838]], [[0.3083919584751129, 0.3527876138687134, -0.8960422277450562, 0.5430686473846436, 0.5512658357620239, 1.3613269329071045, 0.8277290463447571], [-1.5455330610275269, -0.28241926431655884, -0.5852577686309814, -0.05751241371035576, -2.0487091541290283, 0.6564487814903259, 1.2327895164489746], [-0.9471848011016846, 1.0038949251174927, -0.03748144209384918, -2.0461363792419434, 2.3359251022338867, 1.5006119012832642, 0.8936682939529419], [0.21802575886249542, 0.3361339867115021, 0.39289554953575134, -2.1170098781585693, 0.5389602184295654, -0.2675400674343109, -0.5080210566520691], [1.0517700910568237, 1.0271786451339722, 0.12364847958087921, -0.18501071631908417, 0.6702222228050232, 0.9543464779853821, 1.3610999584197998], [1.9473254680633545, 0.6234704256057739, -0.4890598952770233, -0.7637662887573242, -0.8594098687171936, 0.6857485771179199, 0.24024856090545654], [-1.1703194379806519, 0.5167595148086548, -0.8229351043701172, 0.2406850904226303, -0.3988884687423706, 0.5528978109359741, 0.7069287300109863]], [[1.078352928161621, 0.534697949886322, 1.6516233682632446, -1.3859065771102905, -0.7148398756980896, -0.45640045404434204, -0.7447072863578796], [-1.4167671203613281, -1.5746901035308838, 1.4687000513076782, -1.155103325843811, 0.5399045944213867, -0.35440102219581604, 1.6452999114990234], [0.06157471612095833, -0.16596294939517975, 0.6600252389907837, 1.314468502998352, 0.26913100481033325, 0.05656954273581505, -1.2260935306549072], [0.12314218282699585, -0.6989423632621765, -0.24510745704174042, 0.8520708084106445, -0.996052086353302, -0.35373905301094055, 2.0872442722320557], [0.11547166854143143, -0.10470878332853317, 0.8812523484230042, -0.44329696893692017, -0.49735671281814575, 0.10910264402627945, -1.2165921926498413], [-0.08161703497171402, -1.5784832239151, 0.4562530815601349, 0.42617523670196533, -0.10822427272796631, 1.5824775695800781, -2.206892728805542], [-0.55153489112854, 0.7575373649597168, 0.33886048197746277, -0.3524097204208374, -0.4563240110874176, -0.4950582683086395, -3.0668461322784424]]], [[[-0.8674600124359131, -0.16889843344688416, 0.6837306022644043, 1.590598464012146, -1.1474971771240234, -0.8806799650192261, -0.048162877559661865], [-0.489480584859848, 0.8127955794334412, -0.634682834148407, 0.5826476216316223, 0.3076134920120239, -0.06360741704702377, -0.9061652421951294], [-0.6143141984939575, -0.06307137757539749, 0.14684554934501648, -0.6344891786575317, 1.497097134590149, 1.250031590461731, 0.17032000422477722], [-0.10984369367361069, 0.04539339616894722, 0.6487266421318054, 0.8770585656166077, 0.0004787268699146807, -1.2119276523590088, 0.5171230435371399], [-0.7091638445854187, 0.3257914185523987, 0.5154408812522888, -0.03896668925881386, 0.3818995952606201, 1.08836829662323, 0.2504371702671051], [0.1332949995994568, 0.38688236474990845, 0.6802919507026672, 0.07954015582799911, 0.35088109970092773, 0.5336969494819641, -0.7018170952796936], [0.30121737718582153, 0.9805272817611694, -2.0992133617401123, -0.2383018136024475, -3.048814058303833, 1.0075527429580688, 0.2873302698135376]], [[-1.190525770187378, -1.846952199935913, -0.6853418350219727, 1.0350250005722046, -0.31802302598953247, -0.21786242723464966, 0.8275842070579529], [-0.1372847557067871, -0.22518594563007355, -0.44173529744148254, -0.18716305494308472, -0.1807321161031723, 0.8831126689910889, -1.4862898588180542], [2.2987353801727295, 0.8686370253562927, 1.725987434387207, -0.5302426218986511, 0.8032958507537842, 1.8697419166564941, -0.05675588175654411], [-0.7347700595855713, 0.2933044135570526, -0.40447357296943665, -0.5224757194519043, 0.28267115354537964, -1.197021245956421, 0.6550442576408386], [-1.3023751974105835, 0.3884741961956024, -1.7544139623641968, -1.615111231803894, -1.195844292640686, -1.9975357055664062, -1.1886484622955322], [0.5279664993286133, -1.3111108541488647, -1.3662984371185303, -0.9459831714630127, 0.5836173892021179, -0.38099217414855957, 0.3169565796852112], [0.08697492629289627, -1.5350290536880493, -0.6887524724006653, -1.6011605262756348, 1.4909623861312866, 1.0315812826156616, -0.9695924520492554]], [[-1.5918010473251343, -0.6455913186073303, 0.09157311916351318, -0.8659466505050659, -0.08674702048301697, -0.7853070497512817, -0.9228814244270325], [-0.1803358495235443, 0.29026228189468384, -1.8584223985671997, -0.08806511014699936, 1.3908278942108154, 0.9651293754577637, -0.4866839051246643], [-0.06706944853067398, -1.4296571016311646, 0.8589128851890564, 1.7727320194244385, 0.38405412435531616, -1.8609726428985596, -0.6832306385040283], [-0.8550662994384766, -1.3759225606918335, 0.2888970971107483, 0.15545307099819183, -1.655709981918335, -0.09548120945692062, 0.7115978598594666], [-0.19228555262088776, -0.8314381241798401, -1.872549057006836, 0.8875271677970886, -0.4581381380558014, 0.5100370645523071, -1.2722491025924683], [0.0885419249534607, -0.5387234091758728, -0.8799402713775635, -0.6948636174201965, -1.4461067914962769, -0.43296268582344055, -1.2999231815338135], [1.6065187454223633, -0.31493017077445984, -0.6793911457061768, -0.1577783226966858, 1.1122053861618042, 0.6136985421180725, -0.8246773481369019]]], [[[0.5781145095825195, 0.19889895617961884, 0.9791321754455566, -0.9732542634010315, 0.14771123230457306, -0.39738982915878296, -0.6363288164138794], [0.621773898601532, -1.179451584815979, -1.2765673398971558, -1.861264705657959, 1.3045395612716675, -0.12785644829273224, -2.1674182415008545], [0.17972035706043243, 0.7064446210861206, 0.1774977296590805, 0.29162177443504333, 0.6761674284934998, -0.6058757305145264, 0.20619845390319824], [-0.5187652111053467, -0.9998353123664856, -0.24951313436031342, -0.8459594249725342, 2.5413594245910645, 0.09036846458911896, -0.3011804521083832], [-1.032596230506897, -0.49712568521499634, -1.132714033126831, -0.07092983275651932, -1.5220102071762085, 1.6064927577972412, -0.12971486151218414], [-0.40149763226509094, -0.17270608246326447, 0.34810692071914673, 1.686331868171692, 0.20730581879615784, 0.9928369522094727, 1.3111450672149658], [1.30129075050354, 0.38233596086502075, 1.9021942615509033, -1.6068828105926514, 0.4847416281700134, 0.2685212194919586, 2.3761019706726074]], [[-0.6599141955375671, 0.12986233830451965, -0.22703835368156433, 1.0467448234558105, -0.5521730780601501, -1.101554274559021, -1.097843885421753], [1.2481495141983032, 0.318807452917099, 0.756031334400177, 0.8125496506690979, 0.35513851046562195, 0.7695764303207397, 0.32571113109588623], [0.7636154890060425, -2.2641355991363525, 2.2715747356414795, -0.963477611541748, 0.9492160081863403, 1.6054353713989258, -0.5798541307449341], [2.2706141471862793, 0.1936919093132019, -0.32348594069480896, -0.3849062919616699, 0.23385782539844513, 0.5337895154953003, 1.976387858390808], [0.7024862170219421, 0.5629823207855225, -1.1024932861328125, -0.38773420453071594, 1.2144768238067627, 0.5376827716827393, 0.48355618119239807], [0.3565311133861542, 0.03438276797533035, -0.23889827728271484, 2.228205919265747, 0.7977724671363831, 0.1843966543674469, 0.2424316257238388], [1.0177595615386963, 0.5003373622894287, -0.8090224266052246, 0.5228147506713867, -1.1403642892837524, -0.8686140775680542, 0.24790561199188232]], [[1.0932718515396118, 0.637445867061615, -0.8302854895591736, 0.008704052306711674, 0.3329280614852905, 0.8624935150146484, -0.008017108775675297], [-0.02043316699564457, -0.29473745822906494, -0.13929980993270874, 1.6453887224197388, 0.7495766878128052, 0.29140910506248474, 0.27681928873062134], [-0.9717484712600708, -1.6033368110656738, -0.06024700030684471, -1.0235927104949951, -1.1551181077957153, 0.005010957829654217, -0.6595597267150879], [0.8429576754570007, -0.6639592051506042, -0.6609432101249695, -2.291628122329712, -0.7939699292182922, -0.800040066242218, 0.0601792186498642], [0.6407647132873535, 0.21639753878116608, 1.045910358428955, -0.603912889957428, -0.36001601815223694, 0.9501799941062927, -0.35234200954437256], [-1.0735098123550415, 1.218143343925476, -0.8435704708099365, 1.2862915992736816, 0.2179848700761795, -0.10525475442409515, 0.8031677007675171], [-0.008015193976461887, -0.47974076867103577, -0.7239110469818115, -0.9688400030136108, 0.6322221755981445, 0.8759949803352356, 1.1296663284301758]]], [[[-1.7204432487487793, -0.5576251745223999, 0.736049473285675, 1.9718228578567505, 0.5245871543884277, 1.6609108448028564, -0.08353578299283981], [-1.3666064739227295, 0.3779081106185913, 0.8213574886322021, 0.2844303250312805, -0.5814223289489746, 0.5502691864967346, 1.4156949520111084], [0.19286613166332245, 1.14522123336792, 0.4995664060115814, 0.17039476335048676, -1.4721899032592773, -0.054404351860284805, 0.7005249857902527], [-2.263950824737549, -0.24224279820919037, -0.5698451995849609, 1.2331475019454956, -0.1595279723405838, 0.9622458219528198, 1.8634898662567139], [-0.16722992062568665, 0.7646535038948059, 1.7825251817703247, 1.2134355306625366, 0.14110997319221497, 1.247878909111023, -1.0746008157730103], [0.01945299655199051, 1.4690675735473633, -0.9015604257583618, -1.4885839223861694, 0.48534613847732544, 2.8810017108917236, -1.4037023782730103], [-1.1990313529968262, -0.20866736769676208, 1.5643335580825806, 0.632404625415802, 0.38609448075294495, -0.5832629799842834, -2.528942584991455]], [[0.4250667095184326, -0.3591460883617401, 2.061953544616699, 0.4028826653957367, 0.818321168422699, -0.39304104447364807, 0.25217515230178833], [-0.1200442910194397, -0.44406580924987793, 1.592905044555664, 1.0346390008926392, 0.19271433353424072, 0.2158578485250473, -1.6297944784164429], [-1.245090365409851, 1.3979333639144897, -0.2534988224506378, 0.4352010190486908, -1.3654296398162842, 1.688739538192749, -0.7286937832832336], [0.21669067442417145, 0.5601189136505127, -1.26266348361969, -0.15755614638328552, 0.829562246799469, -0.25759562849998474, -0.19774192571640015], [1.689907431602478, 0.7897618412971497, 1.423529028892517, 1.1010322570800781, 0.9881402850151062, 0.6617333292961121, 0.5957866907119751], [1.9913601875305176, -0.08554176986217499, 0.7699563503265381, 1.2397096157073975, -0.03421897813677788, -1.2525914907455444, 0.9873414039611816], [0.7018443942070007, 0.8216733336448669, -1.1125056743621826, 0.4297236502170563, 2.36708927154541, -0.23691678047180176, 0.197005957365036]], [[-0.1973072588443756, 1.366599202156067, 2.1462669372558594, -0.35067638754844666, 0.1471661627292633, 1.1533931493759155, 0.21700242161750793], [1.7974203824996948, 0.7640778422355652, -0.48081105947494507, 0.4446333646774292, 0.1813068389892578, 0.8344321250915527, 1.1782026290893555], [0.12730345129966736, 0.09237565100193024, 0.5680745244026184, 1.3313283920288086, -0.12666207551956177, 0.9473986029624939, -2.0989573001861572], [0.02515166811645031, 0.05530605837702751, 0.41667014360427856, -0.9941997528076172, 0.24931305646896362, -0.8626389503479004, -0.490438312292099], [1.1233142614364624, -0.07812221348285675, 0.7717612981796265, -0.6575955748558044, -1.0949410200119019, -1.5376944541931152, -0.704077422618866], [-0.6262266635894775, -0.5232027769088745, -0.3357429802417755, -0.4707176089286804, 0.3638177216053009, -0.07953029870986938, 0.11724867671728134], [-0.2902362644672394, -0.1674732267856598, -2.5143299102783203, -0.2669641971588135, 0.05698178708553314, -1.6171512603759766, 1.2647701501846313]]], [[[-0.9351606965065002, -0.051438964903354645, -0.09153559058904648, 0.24641169607639313, -0.8799721598625183, 0.22911232709884644, -0.7023307085037231], [-0.9435639381408691, -0.37365230917930603, -1.0450398921966553, -1.1792808771133423, 1.7417984008789062, -1.4803590774536133, 0.42198678851127625], [0.07904596626758575, -0.22983375191688538, -1.373781681060791, -1.6517715454101562, -1.7108649015426636, 1.8313968181610107, -1.1164122819900513], [0.5914793014526367, 0.9474731683731079, 0.3168209195137024, -0.003682804061099887, -0.286990761756897, -1.3559714555740356, 0.9838298559188843], [-0.6662415266036987, 1.9128376245498657, 1.2650257349014282, 0.8233379125595093, 2.0254933834075928, 1.2684909105300903, -1.3054499626159668], [-0.3750864267349243, 0.26911190152168274, -0.9338706731796265, -0.8796637654304504, -1.1528838872909546, 1.74089777469635, 0.4242202937602997], [-0.25333350896835327, -1.6276438236236572, -0.14816485345363617, 0.7567028403282166, 0.11890223622322083, 0.5680206418037415, 0.41270339488983154]], [[-0.2777687907218933, 1.3125840425491333, 0.03205300495028496, 0.5619668364524841, -0.3083053231239319, 1.8908398151397705, 1.9312494993209839], [0.6264488697052002, 1.9260917901992798, -1.3539369106292725, 0.5631524920463562, 0.16931287944316864, 1.2017797231674194, -2.199559211730957], [-0.6680059432983398, -0.26191115379333496, -0.22482801973819733, 1.2822821140289307, 0.7808252573013306, 0.1532648205757141, -0.7915081977844238], [0.5189850926399231, -0.5637670755386353, 0.2432163804769516, 1.24701726436615, -0.7957379221916199, 0.2628425657749176, 0.9932107329368591], [-0.8034820556640625, -0.37152501940727234, 1.1861851215362549, 0.9582145810127258, -1.848353385925293, -0.7343858480453491, -2.058485984802246], [-1.2040954061376397e-05, 0.8297060132026672, -1.438111662864685, -0.24103964865207672, -0.9765689373016357, 1.244399070739746, -1.902597427368164], [0.8646565079689026, -0.3608676493167877, -1.101157307624817, 0.5660985708236694, 0.575177788734436, 0.7703409790992737, 0.6524828672409058]], [[-0.01992546021938324, -2.5567548274993896, -0.9928757548332214, -1.240748405456543, -0.08077916502952576, -2.0935254096984863, 0.4152280390262604], [-0.1710459589958191, 0.48368072509765625, 1.627436876296997, 0.13224737346172333, 1.244246244430542, -0.8476424813270569, 1.1080323457717896], [0.49692925810813904, 0.6212881207466125, 1.766281247138977, -0.44377976655960083, -0.5723952651023865, 0.6285150051116943, 0.8825681209564209], [0.6574798226356506, 0.2043793648481369, 0.8808419108390808, 1.1739246845245361, 1.2641404867172241, -0.9422647953033447, -1.1838465929031372], [-0.8132466077804565, -0.10946228355169296, -1.5060617923736572, 0.49798598885536194, 1.242374062538147, 0.9598415493965149, -0.45052337646484375], [-0.5283838510513306, 0.703525722026825, -0.30652081966400146, 1.5747829675674438, 0.1684085726737976, -1.1261237859725952, -0.6039124727249146], [0.10743100196123123, -0.1635173261165619, 0.6616078019142151, 0.3623223602771759, -0.5568196177482605, -0.048680685460567474, -0.15723952651023865]]], [[[0.16215278208255768, -3.732017993927002, 1.1475496292114258, -0.9937428832054138, 1.4192380905151367, -0.12972892820835114, -0.13090752065181732], [0.06131385266780853, -0.5264710187911987, 0.2892918288707733, 1.2705743312835693, 0.2622308135032654, 1.0314977169036865, -0.04137425497174263], [0.1654423326253891, -1.9162278175354004, -0.14353708922863007, 0.03271441534161568, -0.21350178122520447, 2.2271740436553955, 0.968751847743988], [-1.8866682052612305, -0.17167693376541138, 0.2550726532936096, 0.2554418742656708, -2.377992868423462, -0.9319108128547668, 0.5844623446464539], [0.6812652349472046, 0.37411364912986755, -0.010274714790284634, -1.0039584636688232, 0.19054953753948212, -0.12438282370567322, -0.24649269878864288], [-0.5978769063949585, -1.385119915008545, 0.27581673860549927, -0.04580194875597954, -0.11740627884864807, -1.3590730428695679, -1.0121568441390991], [0.12330127507448196, 0.6951241493225098, -0.2579908072948456, -0.6785786747932434, -0.5696697235107422, -0.9204486608505249, 1.4810163974761963]], [[1.1231437921524048, 1.3482472896575928, -0.6587783098220825, -0.028423989191651344, -0.370781809091568, 0.7579995393753052, -0.9499467015266418], [0.42314374446868896, -0.9891124963760376, 0.499313086271286, 1.117275357246399, -0.719947099685669, 0.23749156296253204, -0.6418806314468384], [1.1603658199310303, -0.13874439895153046, -1.0922242403030396, 0.11326371878385544, -0.1071234792470932, -0.2564997375011444, -1.8098959922790527], [-0.681594729423523, 1.651475191116333, -0.31542402505874634, 3.3580055236816406, -0.24958783388137817, -0.5542914867401123, -0.05912700667977333], [0.07413071393966675, 0.2838199734687805, 0.6998211145401001, -0.5870533585548401, 1.1399914026260376, 0.32622841000556946, 1.4222164154052734], [-1.3617630004882812, -1.9080781936645508, -0.7783849239349365, -2.07478404045105, 2.2449727058410645, -0.14696432650089264, -1.6935800313949585], [0.8213618993759155, -0.8883140087127686, 0.5158537030220032, 0.49696364998817444, -1.7319592237472534, -0.5440288782119751, -0.13005520403385162]], [[0.41890931129455566, -0.8745600581169128, 0.03468628600239754, 2.679159164428711, 0.8356966972351074, -1.6572751998901367, 0.16096892952919006], [0.33991292119026184, 0.07287966459989548, -0.19938312470912933, 1.1505359411239624, -0.6931360960006714, -2.2391562461853027, 1.6203248500823975], [-1.1249955892562866, 0.6809094548225403, -0.7123236656188965, -0.9234461784362793, -1.5556883811950684, 0.6697729825973511, 0.3055144250392914], [-0.06813943386077881, -1.4364240169525146, 0.4716387093067169, -0.03673207014799118, -0.0755273699760437, 0.893465518951416, 0.4510628879070282], [-0.060428980737924576, 1.008056879043579, -0.3674602806568146, 0.22312384843826294, 0.31376954913139343, -1.3022557497024536, 0.5955373048782349], [0.06479546427726746, -1.2031497955322266, 0.11282270401716232, 0.9005342125892639, -0.7079240083694458, 0.9311807751655579, 0.3532025218009949], [1.0207438468933105, 0.7165418267250061, -0.2793532907962799, 0.41036316752433777, 1.5949265956878662, -0.4225071668624878, -0.3683791756629944]]], [[[1.216807246208191, 0.7681266069412231, 0.5985907912254333, 1.5889337062835693, 0.6036823391914368, 0.5178818702697754, -0.12723079323768616], [0.613171398639679, 0.8521751165390015, -0.7488935589790344, -0.41844287514686584, 0.946164071559906, 0.6594958901405334, -0.8684505224227905], [0.4029422700405121, 1.4774516820907593, 0.5882740020751953, 0.5304034352302551, 0.0017451961757615209, 1.3893738985061646, 0.11627884954214096], [0.16648049652576447, -0.05683714896440506, -0.2188255488872528, 0.004746741149574518, -0.6260272860527039, 0.11126350611448288, -0.9539088010787964], [0.158240407705307, -0.8217384219169617, -0.2725916802883148, -0.2937052547931671, 0.3171441853046417, -0.22144153714179993, 2.1694834232330322], [-1.1138931512832642, -0.22684168815612793, 0.495235800743103, -0.6678853631019592, 1.627453088760376, -0.898223340511322, 0.4227971136569977], [0.11634977906942368, 0.3564002215862274, -1.5232574939727783, -0.5859563946723938, 0.7293049097061157, 1.2267110347747803, 0.18161499500274658]], [[0.6700027585029602, 1.5510153770446777, -1.9847131967544556, -0.04614989459514618, 0.6967424154281616, 0.6244648098945618, 0.45486947894096375], [0.6487602591514587, -0.5814135074615479, 1.7061052322387695, 0.013102716766297817, -0.10744466632604599, -1.2467869520187378, -1.8638516664505005], [0.2221352607011795, -0.1818149834871292, 1.2766294479370117, -1.6978967189788818, -1.902540922164917, 0.8166171908378601, 0.3799580931663513], [-0.578507125377655, -2.2275240421295166, 1.4070426225662231, -0.513514518737793, 0.1982058435678482, -1.31645929813385, 0.32931792736053467], [0.8435019254684448, -1.7413346767425537, -0.18018074333667755, -0.711782693862915, 1.1054465770721436, -0.5780237317085266, -0.129304438829422], [0.0733552873134613, -1.2144159078598022, -2.0234551429748535, 0.16912443935871124, -1.20632004737854, -0.5751146674156189, 0.44008681178092957], [-1.1519675254821777, 0.6059291362762451, 0.3714173138141632, -0.9638360142707825, -0.3555273115634918, -0.756538987159729, -0.9281692504882812]], [[-2.4988186359405518, -1.7917602062225342, 1.4316647052764893, -1.4202340841293335, -0.003810818074271083, -0.22534722089767456, 1.3513528108596802], [-0.6442781090736389, 0.7667550444602966, -1.066101312637329, 0.684509813785553, 0.6652949452400208, 0.763433575630188, -0.9078332781791687], [0.6226580739021301, 1.2677987813949585, -0.07920269668102264, 0.03827165812253952, -0.2071409970521927, 0.6283709406852722, 0.7569708824157715], [-0.4922037720680237, 0.591895341873169, 0.8775577545166016, 0.024060050025582314, -0.2309095561504364, 0.42859089374542236, -0.5669240951538086], [-0.9745873808860779, 0.9876753091812134, 0.4029412865638733, 1.8941175937652588, 0.6422767043113708, -0.3595787584781647, -0.9623644948005676], [-1.1322908401489258, 0.14241494238376617, -1.8995877504348755, -0.11693418771028519, 0.7267988920211792, -1.783204436302185, -1.5327633619308472], [-0.025644859299063683, 1.4257439374923706, 1.528239130973816, 1.3209292888641357, 0.028818367049098015, 1.8478906154632568, 0.5537806749343872]]], [[[0.9681863784790039, 0.2149910181760788, 0.8077853918075562, 0.8219688534736633, 1.7714910507202148, -0.871077299118042, -0.8616549372673035], [-1.9743856191635132, -0.5617995858192444, -0.5700549483299255, 0.5118336081504822, -1.05364990234375, 0.6285118460655212, -0.042117442935705185], [1.624158501625061, 0.30316659808158875, 0.23057842254638672, -0.9302610754966736, 0.07132433354854584, -0.27656984329223633, 0.6379382014274597], [-1.652864694595337, -1.0865437984466553, 1.5289185047149658, 1.7777591943740845, 0.13172124326229095, -0.7892233729362488, 0.635204017162323], [0.1017765998840332, 1.0950978994369507, 0.5954493880271912, 0.24118517339229584, -0.8065643906593323, -0.7476767897605896, 0.7105620503425598], [-0.42696812748908997, 0.4537692070007324, 1.5983822345733643, 0.31931209564208984, -0.6835066676139832, 0.5507757663726807, -0.16127049922943115], [1.110241174697876, 0.22528818249702454, -1.0650992393493652, 0.22455231845378876, -0.5625725984573364, 1.2809033393859863, -0.8121437430381775]], [[-0.24541957676410675, 1.3732162714004517, 0.8543460965156555, 0.051674406975507736, -0.33782362937927246, -0.2694784998893738, -1.424306869506836], [-1.497348666191101, 0.19267266988754272, 0.4502560496330261, 0.35226431488990784, -0.5944252610206604, -1.0690195560455322, 0.7484880685806274], [0.4384981393814087, 0.08914525806903839, 1.2591391801834106, 0.5339797139167786, -1.0286505222320557, -1.17881178855896, -0.011549143120646477], [-0.6809811592102051, -2.91727876663208, -0.4152030348777771, -0.7480475902557373, -0.010365558788180351, -0.3760015070438385, -0.0005117888795211911], [0.4811520576477051, 1.4781498908996582, -1.095338225364685, 2.215705156326294, 0.13899554312229156, -0.26759400963783264, -0.10339982062578201], [1.1126978397369385, -0.18516892194747925, -0.2596636414527893, 0.5520158410072327, -2.0115914344787598, 0.7270976901054382, 1.566338062286377], [-0.2509976029396057, -2.616356372833252, -0.9256892800331116, 1.4266855716705322, 0.3910563588142395, 0.5636189579963684, -0.054501425474882126]], [[0.365418404340744, -1.4185771942138672, 1.8370068073272705, -0.4801290035247803, -0.1120462417602539, -0.7518613934516907, 1.35819673538208], [0.33698326349258423, -1.341864824295044, -1.1825355291366577, 1.1288034915924072, 1.254633903503418, -0.8028996586799622, 1.1060688495635986], [-0.9713809490203857, 0.601872444152832, 1.1439930200576782, 0.6322210431098938, -0.09943529963493347, 0.7808824181556702, -0.26893335580825806], [0.1949145644903183, 0.14025412499904633, 0.6649187207221985, -0.06408149749040604, 0.12135149538516998, -0.9704267978668213, -0.22319497168064117], [-0.8189508318901062, 2.01315975189209, -1.1454707384109497, 0.4270247519016266, -0.46148309111595154, 0.6673291921615601, -0.5837613940238953], [-1.9214388132095337, 0.9177289009094238, 0.23914948105812073, 0.16958697140216827, 0.4642581641674042, 0.8126402497291565, -1.4848759174346924], [1.9225170612335205, -1.8234819173812866, 0.20180368423461914, 0.33444252610206604, 2.361459493637085, -0.4140632152557373, 0.8507300615310669]]], [[[1.328653335571289, -0.07146671414375305, -0.7572931051254272, 0.12401583045721054, -0.17089581489562988, 2.1362929344177246, -1.1396616697311401], [0.23631641268730164, 0.9868878722190857, 0.7975798845291138, -0.5994873642921448, 0.8704314827919006, -1.2479782104492188, -1.4866979122161865], [-1.707789659500122, 2.0372936725616455, 0.3789210915565491, 1.0156384706497192, -0.2962220311164856, -1.659379243850708, -0.15537412464618683], [0.09100405871868134, 1.6364420652389526, -0.652133584022522, -0.9162818789482117, 0.15961778163909912, -2.18092679977417, 0.28825780749320984], [1.7817914485931396, -0.30795517563819885, 0.2550521194934845, 0.048037901520729065, -1.33466374874115, -0.8274214863777161, -1.3995888233184814], [-0.528079628944397, 0.8246690630912781, 1.04002046585083, -0.5793617963790894, -0.37161776423454285, 1.4617609977722168, -0.9742311835289001], [-0.8233750462532043, -0.63609778881073, 2.263404607772827, -0.03158332034945488, -0.12460952252149582, -2.600409746170044, 1.2364922761917114]], [[0.5119532346725464, 0.42908865213394165, 0.218870609998703, 0.8023257255554199, 1.790587067604065, 0.9567744135856628, 1.3110361099243164], [-1.4260393381118774, -0.8990041017532349, 0.2668277621269226, -0.14222100377082825, -0.4463675022125244, -0.5950424671173096, -1.120166540145874], [0.5584071278572083, -0.7163012027740479, -0.48993611335754395, -0.6527202129364014, -0.8450686931610107, 0.34872010350227356, -0.47667595744132996], [-0.501594603061676, 1.518168568611145, -0.3721611201763153, -0.8886772394180298, 1.7976950407028198, -1.512711763381958, -2.008735179901123], [0.5393299460411072, -0.021452348679304123, -1.4782699346542358, -0.2569059431552887, 0.661238431930542, -0.03202921152114868, 0.04273882135748863], [-0.9500707387924194, 0.21899431943893433, -1.0378011465072632, -0.8024997115135193, 0.9927866458892822, 1.4223154783248901, -1.634399652481079], [-0.039897818118333817, 1.5017045736312866, -0.31008490920066833, -1.2651355266571045, -0.1415945291519165, 0.6844502687454224, 1.8903309106826782]], [[0.22414381802082062, -0.06983906030654907, 0.05242787301540375, -1.2428240776062012, 0.141951784491539, -1.9579732418060303, -0.947313129901886], [0.2556595206260681, -1.808620572090149, -0.7663599848747253, -0.5128730535507202, -0.7050359845161438, 1.3371365070343018, -0.833271861076355], [-0.19054651260375977, -1.248978614807129, -1.6279168128967285, -0.4660317599773407, 0.8306000828742981, -1.3433690071105957, 1.4118536710739136], [-2.0329389572143555, -1.3815845251083374, -2.059140205383301, 1.5539054870605469, -1.832802414894104, -1.5095703601837158, 0.6763644218444824], [1.688192367553711, -0.149282306432724, 0.3573054373264313, -0.18129239976406097, 0.699511706829071, 0.0664275661110878, -1.1586809158325195], [-0.027685560286045074, -0.4002196192741394, 1.121437907218933, 1.1060612201690674, 0.5442113876342773, 1.0925484895706177, 0.8267809152603149], [-0.23145069181919098, -0.3069871664047241, 1.8133814334869385, -0.4165950417518616, -0.8543015122413635, -2.7447566986083984, -1.8735485076904297]]], [[[-0.37401995062828064, -0.14613620936870575, -0.5446752905845642, -0.5312721133232117, 0.2863520383834839, -2.252203941345215, 0.6009048819541931], [0.5900565385818481, 1.0868594646453857, -0.3565140664577484, 0.23495878279209137, -0.8673559427261353, -3.172935724258423, -0.5244153141975403], [0.7161235213279724, 0.2858005464076996, 0.6441645622253418, 0.7732872366905212, -0.40472954511642456, -0.5315933227539062, 0.4823712706565857], [0.5988863706588745, -0.2119155377149582, -0.9536570906639099, -0.6757506728172302, -0.6187365055084229, -0.2823275625705719, -1.6304011344909668], [0.24792324006557465, -1.3349899053573608, -0.2646908164024353, -0.7480278611183167, 0.7442299723625183, 1.4370108842849731, -0.5636257529258728], [-0.836328387260437, 0.016022348776459694, -1.6321736574172974, -0.21077971160411835, 0.36122816801071167, 1.821256160736084, -1.0396647453308105], [0.3807902932167053, 0.36631980538368225, -0.3794502019882202, -0.9235663414001465, 0.3886926770210266, -0.390762597322464, -0.4156266450881958]], [[0.044691577553749084, -1.9062365293502808, -0.03313644602894783, -0.13917510211467743, -0.5569925904273987, 0.754359781742096, -1.026155710220337], [1.9668937921524048, -0.4335429072380066, 0.5950778722763062, -0.2706945538520813, -1.350656270980835, -1.0456647872924805, -0.7921030521392822], [0.9880520105361938, 1.5741788148880005, 1.9700253009796143, -0.05520369112491608, -0.8963242769241333, 0.6917632818222046, -0.8382212519645691], [0.7242041230201721, 1.5387872457504272, 1.8357700109481812, -0.06642737239599228, 0.10514859855175018, 1.2995309829711914, -0.2985486388206482], [1.3817768096923828, -0.6640682816505432, -0.4596329629421234, 1.7785557508468628, 0.9413102865219116, -0.9122263193130493, -1.9839054346084595], [1.4952733516693115, 0.9896591901779175, -0.1325043886899948, 0.3345406949520111, 0.4856036305427551, 0.646524965763092, -0.8117822408676147], [1.7217345237731934, 0.6861400008201599, -0.15221987664699554, 0.32278263568878174, -1.5774792432785034, -0.4154456853866577, 0.34720683097839355]], [[-1.185804843902588, -1.191348910331726, -0.17780593037605286, 0.7687719464302063, -0.634135901927948, 0.12124168127775192, -0.78267902135849], [0.1355229616165161, 0.1646423637866974, -0.5518715381622314, 1.3208540678024292, -0.17293809354305267, -0.14551618695259094, -0.7198758125305176], [-0.6525265574455261, -1.684895634651184, 1.6322346925735474, -1.4887663125991821, -0.7981206774711609, -0.01061442494392395, 1.2637280225753784], [-0.03080160729587078, -0.22283847630023956, -0.40235936641693115, -0.5619053840637207, -0.4390348494052887, 1.864953875541687, 0.5474928021430969], [0.8291873335838318, -0.37269163131713867, -0.2751171588897705, 1.6796417236328125, -0.3632028102874756, 0.3599269688129425, 1.1828936338424683], [0.38068705797195435, -0.0426550917327404, 0.7460619211196899, 0.5244467258453369, 0.17820493876934052, -1.1656147241592407, 0.8771432638168335], [0.8959633708000183, -1.073972463607788, -0.7093536853790283, -0.13708563148975372, -1.3522225618362427, -0.6332362294197083, 1.6280244588851929]]], [[[-0.9478408098220825, -0.5170860886573792, -0.4982139468193054, 0.49252060055732727, 0.5870556235313416, -1.8535313606262207, 0.30422812700271606], [0.6683047413825989, 0.0845399796962738, 0.9052473306655884, -1.0882434844970703, 0.3159281611442566, 2.6508235931396484, -1.1737679243087769], [-0.3968893885612488, -0.8151119947433472, 0.7329570055007935, 0.3714328110218048, 1.1977866888046265, -1.3597079515457153, 0.29157835245132446], [0.32220661640167236, -0.7391903400421143, -0.497912734746933, 0.032475732266902924, -0.1158251240849495, -0.1273457556962967, 0.6953878402709961], [3.0554981231689453, -0.5629852414131165, -1.0055088996887207, -0.49366316199302673, 0.0613229013979435, -0.08786464482545853, -0.34946537017822266], [0.8307195901870728, -2.657672643661499, -0.8028696775436401, 0.7410098314285278, -1.422524094581604, -0.5321306586265564, -0.24006538093090057], [-0.016216205433011055, -0.7908112406730652, -0.9143458008766174, -1.467990517616272, 0.9756842255592346, -1.0078389644622803, 0.17330873012542725]], [[0.5860503315925598, 0.5841115117073059, -0.26858749985694885, -0.1622239649295807, -1.5341659784317017, -0.46709802746772766, -2.1320841312408447], [1.0340814590454102, -0.4239833354949951, -1.1638805866241455, 0.618869960308075, 0.3993127644062042, -0.05140470340847969, 0.22321155667304993], [0.9242496490478516, 0.2152518332004547, 1.0030821561813354, 0.2953619956970215, 0.7715964317321777, -0.10834649950265884, 0.5405098795890808], [0.07409095764160156, 0.3121003210544586, 0.7631226181983948, -0.3755514621734619, 0.9145281314849854, 0.03062387742102146, -1.7900053262710571], [-0.1859941929578781, -0.10527893155813217, -0.6889920830726624, 0.5376864075660706, 0.18921466171741486, -0.6509396433830261, -1.6480046510696411], [-0.2714274525642395, 0.5130492448806763, -0.5825823545455933, -0.32468459010124207, 0.8286832571029663, 0.8244866132736206, 2.6873881816864014], [-0.9605828523635864, 0.7874126434326172, -1.3051049709320068, 1.4253275394439697, 0.07734468579292297, 0.4907648265361786, 0.20049677789211273]], [[0.9601909518241882, 0.08096317946910858, 0.9711089134216309, 0.33103397488594055, -0.5016350746154785, 0.5414285659790039, 0.003260987810790539], [-1.1654655933380127, -1.169310212135315, -0.9014034867286682, 0.1756766140460968, -0.1547059714794159, 2.4134602546691895, -1.1452947854995728], [0.4142773449420929, -2.495262861251831, 2.0981335639953613, 0.05281253531575203, -1.9880667924880981, 1.4063340425491333, -0.2914552092552185], [-0.1687244325876236, 0.36080724000930786, -0.9651508927345276, -0.8394193053245544, 0.3715116083621979, 0.3229183852672577, -0.8987218737602234], [-0.2321351170539856, 1.2641350030899048, -1.3795689344406128, 0.355033814907074, 0.42853307723999023, 0.8479366898536682, -1.1080015897750854], [-0.014847150072455406, -1.242983102798462, 0.9926602840423584, 0.03841475769877434, 1.1680980920791626, -0.8579604029655457, -0.7890309691429138], [-0.9270145893096924, -0.1773460954427719, -1.0027718544006348, 2.0860249996185303, 0.3606906235218048, -0.39967355132102966, 0.15743662416934967]]], [[[2.359147310256958, 1.9092328548431396, -1.37736976146698, -0.09646736085414886, -0.06539003551006317, -1.163700819015503, 0.08878340572118759], [0.7402811050415039, -0.8518787026405334, -1.387813925743103, 0.6889630556106567, -0.7674106359481812, 0.5732756853103638, -0.3970812261104584], [-1.0916334390640259, 0.18330934643745422, -1.1002529859542847, -0.5472725033760071, 0.6111739873886108, 0.28934410214424133, 1.2175309658050537], [0.02829730696976185, 0.34276437759399414, 2.5296101570129395, 1.3289997577667236, 1.271382212638855, 0.5206918716430664, -0.3877861201763153], [0.582112729549408, -0.9482166171073914, -1.828502893447876, 0.3795788288116455, 1.5794554948806763, 0.719008207321167, -1.265633225440979], [-0.34646594524383545, -0.6246729493141174, 1.32435142993927, 0.6971218585968018, -0.23078495264053345, 0.21693682670593262, -0.07139505445957184], [0.8766372203826904, 0.6249350905418396, 1.2045998573303223, -0.9359049201011658, 0.8644253611564636, 0.011790403164923191, 0.9093668460845947]], [[-0.5605707764625549, -0.41368043422698975, 1.3621351718902588, -0.6683277487754822, -3.130706787109375, -0.759398341178894, -0.44823405146598816], [-1.7966821193695068, -0.8264105916023254, 1.013292670249939, -0.02122378535568714, -0.3360382914543152, -0.299929678440094, 0.5020668506622314], [-0.5995522737503052, -1.007280707359314, 1.089772343635559, 0.375192254781723, -0.8857051134109497, -0.29873892664909363, -0.1975627988576889], [-1.1198753118515015, 0.4421033263206482, 0.643005907535553, 0.4907987117767334, -0.0783691555261612, 0.39933258295059204, -1.2497224807739258], [-1.7031294107437134, 0.015831448137760162, -1.1718794107437134, -0.41705724596977234, -0.6962524652481079, 0.4789608418941498, -0.16525115072727203], [1.1122033596038818, -0.6499485373497009, -1.3849848508834839, 0.9913610816001892, 1.0468616485595703, 1.220469355583191, 1.0677447319030762], [0.15115363895893097, 1.941244125366211, 3.3473033905029297, 1.5738492012023926, -0.44697579741477966, -0.4280266761779785, 0.0046632117591798306]], [[-1.7726410627365112, -0.006406369153410196, -1.0767780542373657, -0.4044211208820343, -0.7982736229896545, 0.36592328548431396, -1.7238348722457886], [0.5099263191223145, -1.154203176498413, 0.09997168183326721, -0.024975333362817764, 0.14525996148586273, -0.07906458526849747, -0.41042011976242065], [-1.084997296333313, -0.45527464151382446, -1.7277896404266357, -0.0372110940515995, 1.9736089706420898, -1.0585789680480957, -1.0305472612380981], [0.5266606211662292, -0.5895438194274902, -1.9657524824142456, -1.4389996528625488, -1.5207443237304688, -0.33919692039489746, -0.9325551390647888], [0.15533976256847382, -0.26995474100112915, -0.5897127985954285, -0.7162072658538818, 0.4333527088165283, -0.8734663128852844, -0.9132217764854431], [-1.8710626363754272, 0.9936225414276123, -0.9680799841880798, -0.5999202728271484, 0.21708030998706818, 0.23506101965904236, 0.5844831466674805], [0.23937347531318665, 0.8770936727523804, -0.49488914012908936, 0.3054473102092743, 1.3742780685424805, 0.5069856643676758, -0.5542050004005432]]], [[[-0.7288613319396973, -0.007084595505148172, -0.06167744845151901, 1.2604871988296509, 0.8951042294502258, 1.2089803218841553, -0.39789679646492004], [-0.40771934390068054, 0.7699582576751709, -0.03496134653687477, 1.348743200302124, -0.828622579574585, -0.4589979350566864, 0.4343204200267792], [-0.7344760298728943, 0.4837232828140259, -0.21897532045841217, -0.546309232711792, -0.7944116592407227, -0.3434808850288391, -0.45971545577049255], [0.6317893266677856, -0.7067644596099854, 0.7004967331886292, -0.8533082604408264, -0.1528233140707016, 0.41448602080345154, -0.3457778990268707], [-0.25451499223709106, -0.008974846452474594, 0.11659432202577591, 0.21582433581352234, 0.3909400701522827, 1.5424444675445557, 0.3260924518108368], [-0.25971874594688416, -0.19933468103408813, 0.5469344854354858, 0.178370863199234, -2.547666549682617, 1.4716036319732666, 0.13523869216442108], [0.7704088091850281, -1.877968192100525, -0.049575548619031906, 0.29165971279144287, 1.212092399597168, -1.1224943399429321, 2.473299741744995]], [[0.5266825556755066, -1.6331959962844849, 2.4501709938049316, 1.9304560422897339, 1.292708396911621, -0.3747560381889343, -0.509160041809082], [-0.7125311493873596, 0.3082789480686188, 0.7474623918533325, -0.5218676924705505, 1.1783502101898193, -0.399763286113739, 0.03965434804558754], [0.49414119124412537, -0.790982723236084, 0.8438772559165955, 1.1737130880355835, 2.038184881210327, 1.509641170501709, 0.1160479336977005], [0.47642767429351807, 1.501501202583313, -0.29568129777908325, -0.5401099920272827, 0.17015612125396729, -0.6002210378646851, -0.6814061403274536], [-0.0693650022149086, -0.7589324116706848, -0.7941685914993286, 0.4392472803592682, 0.5652915835380554, 0.33025556802749634, 1.2678844928741455], [0.810820460319519, 0.09164832532405853, -0.5005428194999695, 0.7186192274093628, -0.5670472979545593, 0.5545020699501038, 2.0376765727996826], [0.35677218437194824, 0.7546020150184631, 0.47681722044944763, 0.15798114240169525, -0.626706600189209, -0.8653245568275452, 0.4740130305290222]], [[2.5110421180725098, -2.1600699424743652, -0.00022691593039780855, 1.931884527206421, 1.5481078624725342, 0.6047421097755432, 1.2418063879013062], [-0.4295392632484436, 0.024718347936868668, 1.0635910034179688, -1.1928659677505493, -1.5010056495666504, -1.0136070251464844, 0.8481703996658325], [1.4212431907653809, -0.7000773549079895, 1.6545072793960571, -0.8205941319465637, -0.28897252678871155, 1.0329997539520264, 1.083513855934143], [-0.7711129784584045, 0.5109679102897644, 2.283285617828369, -0.5658333897590637, -0.1881818026304245, 0.22710858285427094, -0.5649574995040894], [0.19500799477100372, 1.1632097959518433, -0.4671812057495117, 1.1938533782958984, 2.752371311187744, -0.6144465208053589, -0.1723572313785553], [2.5886340141296387, 0.770729660987854, -0.05656711757183075, -1.1927039623260498, 0.5628625154495239, 1.0879610776901245, -1.379005789756775], [-0.12948112189769745, -1.1207542419433594, 0.44176051020622253, 1.2821260690689087, 0.3578966557979584, 0.9155705571174622, 0.4227912127971649]]], [[[-0.4133613109588623, -1.9771947860717773, -0.9803159236907959, -0.3472440242767334, -0.0025381678715348244, 0.28372442722320557, 0.7000161409378052], [-1.333951711654663, -0.7543331980705261, 2.733635663986206, 0.4565717577934265, 0.24255511164665222, -0.7445945143699646, 0.24787698686122894], [0.044063106179237366, 0.15286299586296082, -1.4635380506515503, 0.01663128100335598, 0.2642951011657715, 0.03328631818294525, 0.22974130511283875], [0.21490485966205597, -0.4081811308860779, -0.36436206102371216, 1.5409806966781616, -0.11685050278902054, 1.2531352043151855, -1.7311102151870728], [0.2130340337753296, 0.4374033510684967, -1.890516996383667, 1.4742571115493774, 1.8830757141113281, 0.587334394454956, 0.6446092128753662], [-3.0256550312042236, -0.38453415036201477, 0.12771473824977875, 1.9126818180084229, -0.4499533176422119, 0.6622281074523926, 0.6960554122924805], [1.7405461072921753, 0.5689657330513, -1.7577030658721924, -0.7070600390434265, -1.164278268814087, -0.96526038646698, -0.2785836458206177]], [[-0.12451594322919846, -2.150812864303589, -1.63026762008667, 0.853560209274292, 0.5293353796005249, -0.6783743500709534, 0.7156623601913452], [0.777411699295044, -0.18675117194652557, -1.9969602823257446, -0.16187232732772827, 0.9870452880859375, -0.5537923574447632, -1.8775025606155396], [1.0011601448059082, 0.13614529371261597, -0.5109710693359375, 0.5757573246955872, 0.006225191056728363, -0.46086767315864563, -0.7499548196792603], [1.363724946975708, 0.11790327727794647, 0.228565976023674, 0.41929328441619873, 0.0016635600477457047, 1.6729646921157837, 1.1835498809814453], [-2.0549933910369873, -0.5947309136390686, -0.05653174966573715, 0.19153988361358643, -0.6839385628700256, -0.34429115056991577, 1.662699818611145], [-0.20682816207408905, -0.14763188362121582, 0.5063345432281494, -0.4850213825702667, 1.6820148229599, -0.6975301504135132, 0.23906965553760529], [1.0964674949645996, 0.5490321516990662, 0.20113444328308105, 1.1845207214355469, 0.8723087906837463, 0.8495942950248718, -0.21635079383850098]], [[0.1362079679965973, 0.5474927425384521, -1.072242021560669, -2.0374250411987305, -2.000866651535034, -0.9349913001060486, -0.9476801753044128], [1.7147446870803833, 0.3313479721546173, 0.6810652017593384, 0.6616069674491882, -0.35618042945861816, 0.6515834927558899, -1.3385266065597534], [1.622109055519104, 0.36330950260162354, 0.2729916572570801, 0.09828835725784302, 0.5973847508430481, -0.18863363564014435, -1.451981782913208], [-1.5820809602737427, -0.3376755714416504, 0.6122694611549377, 0.5763533711433411, -0.3518263101577759, 0.7091835141181946, 1.9865816831588745], [1.125290036201477, 0.5836982727050781, 0.10056328773498535, -0.6259928345680237, -0.7839941382408142, 0.6035767197608948, -0.4502926468849182], [-0.6439172625541687, 0.6232848167419434, -0.5442620515823364, 0.6791160106658936, -0.8977221250534058, 0.8873403072357178, -0.5962941646575928], [1.5598725080490112, 0.738999605178833, -0.12543031573295593, -0.983170747756958, 2.926997184753418, -1.1274874210357666, 0.9959454536437988]]], [[[-1.5977063179016113, 2.310263156890869, 0.7810585498809814, 0.24841763079166412, 0.6709633469581604, 0.09097165614366531, -1.4076818227767944], [-0.1929740458726883, 0.5235908031463623, 0.41500839591026306, 0.23011577129364014, -0.7032220959663391, -0.07649011164903641, 0.2167842835187912], [0.7156504988670349, 1.319108486175537, 0.37414899468421936, 0.8632938265800476, 1.206364393234253, -0.6815754175186157, -0.2793698012828827], [-1.2617162466049194, 2.5065228939056396, 0.652660608291626, 1.0250319242477417, 0.08563091605901718, 0.12492437660694122, -0.1552903801202774], [-1.2245268821716309, 1.6144287586212158, 3.053253650665283, 0.4427504539489746, -1.1718593835830688, 0.13488945364952087, -1.5559133291244507], [-0.27309733629226685, 0.4205714166164398, 0.8332796692848206, -0.20313985645771027, -2.392784357070923, -0.8243898153305054, 0.8513127565383911], [0.8795272707939148, -1.045294165611267, 0.4809354245662689, -0.02907617948949337, -0.4313282370567322, -0.9345309138298035, -1.2163493633270264]], [[0.6406503915786743, 0.2660655677318573, 0.7987812757492065, 1.0977332592010498, 0.18564122915267944, -1.5360034704208374, -0.05318492650985718], [-0.349631130695343, 0.2800230383872986, -0.1462772637605667, -1.7258503437042236, 0.9126427173614502, -0.19286485016345978, -0.2470715045928955], [-1.2143685817718506, 0.5801196098327637, 0.8178132772445679, 2.0887420177459717, -0.15081168711185455, 2.3391687870025635, 0.37904536724090576], [-1.3694385290145874, 0.37900230288505554, -0.6422582268714905, -1.2496919631958008, 0.9375768303871155, 1.1721649169921875, 0.18623460829257965], [1.1241748332977295, -0.3748534917831421, 2.2872560024261475, 0.1841650754213333, -0.39553964138031006, -0.5024505257606506, 0.5458807349205017], [-1.3268663883209229, 0.8155986666679382, 2.0594797134399414, -0.2860185205936432, -1.6848266124725342, 0.6151766777038574, -1.0622597932815552], [0.3911805748939514, -3.3673267364501953, 0.3558019995689392, -0.9623395204544067, 0.46062228083610535, -1.149888277053833, 0.3337424695491791]], [[-0.2388552874326706, -0.26153236627578735, -1.4981613159179688, 1.2624731063842773, -1.2896264791488647, -0.13257001340389252, 0.9043179750442505], [-0.7581492066383362, 1.8003036975860596, 0.4339299201965332, 1.0444167852401733, -0.6628366112709045, 0.4750482439994812, 0.043844074010849], [1.4796286821365356, -0.6910304427146912, 1.0246894359588623, -1.1733415126800537, -1.5223684310913086, -0.6211433410644531, -0.1653815507888794], [0.44389086961746216, 0.26645854115486145, -0.40294313430786133, 0.06251385807991028, -0.40007591247558594, -1.723366379737854, -0.4752694368362427], [1.5983902215957642, -0.2629307806491852, -0.26439759135246277, 0.03469083830714226, 0.1509280651807785, 0.08870644867420197, -0.39992281794548035], [0.025091106072068214, -1.0958123207092285, -0.14882156252861023, -0.5522978901863098, 1.1668232679367065, -1.0765575170516968, -0.7390393614768982], [1.0095988512039185, 0.5625439286231995, 1.2032482624053955, -0.22073011100292206, -0.33781465888023376, 0.10235951095819473, -0.19909648597240448]]], [[[1.4135282039642334, -2.152738094329834, -1.6603506803512573, 1.1805880069732666, 0.9125502109527588, 0.856097400188446, -0.7283530235290527], [0.7268199920654297, 0.4777091443538666, -1.1856532096862793, 1.3261823654174805, 0.5181154012680054, 1.280061960220337, 0.32196536660194397], [-0.8724496960639954, 1.3735774755477905, 0.1373744159936905, 0.5310778617858887, -0.851128876209259, -0.3936389982700348, -0.025663485750555992], [1.0030407905578613, 0.9258917570114136, -0.5129659175872803, 0.6028465032577515, 0.4548148512840271, 1.3454710245132446, -0.09315842390060425], [0.24349477887153625, 0.6004966497421265, 0.4195941388607025, 1.1508872509002686, -0.16263897716999054, 0.35176923871040344, -0.9651728868484497], [0.2547898292541504, 0.9277671575546265, 0.7878982424736023, 0.15535424649715424, -0.27655482292175293, 0.8461780548095703, -0.6698105335235596], [0.9389110207557678, 0.009918058291077614, 0.39268800616264343, -0.6123501658439636, 1.1530612707138062, -0.21398648619651794, 0.08048706501722336]], [[2.3701164722442627, 0.33255961537361145, -2.3314456939697266, 0.8420737981796265, -0.38945984840393066, 0.2350645363330841, 1.1801531314849854], [1.404167652130127, -0.27819472551345825, -0.9975294470787048, -0.04300029203295708, 1.7097023725509644, -1.0832955837249756, 0.002844671718776226], [0.11289869993925095, 0.674523651599884, -0.6438382267951965, 0.14894039928913116, 0.4503181278705597, 0.9455776810646057, -1.3156051635742188], [1.5755596160888672, -0.6659205555915833, 1.2131112813949585, 0.10300885140895844, 0.18219095468521118, -0.2894723117351532, -1.4018911123275757], [-0.01222586166113615, -0.7446034550666809, -0.22839172184467316, 0.7501725554466248, -0.38022705912590027, 0.8247849941253662, 0.9056206941604614], [0.44253063201904297, 1.7464911937713623, -1.1078611612319946, -1.0459280014038086, 0.5189669132232666, -0.4663144648075104, -0.21719826757907867], [0.2940325140953064, 1.4400912523269653, -0.4947448968887329, -0.8678640723228455, -0.03830726444721222, 0.3532954752445221, 1.0659995079040527]], [[-0.4872515797615051, -0.08583378046751022, 0.21349301934242249, 0.9809280633926392, -0.6680588126182556, -2.0389621257781982, -1.2383760213851929], [-0.5366948246955872, -1.3608397245407104, 0.04045257717370987, 1.877981424331665, -0.02255415730178356, -1.1912728548049927, -1.4746918678283691], [-1.0475279092788696, 0.24519497156143188, 0.5024538040161133, -0.1900802105665207, -2.060863733291626, 0.03856874629855156, 0.6393106579780579], [0.04892946779727936, 1.1709237098693848, -1.3169753551483154, 0.8528069257736206, -2.040430784225464, -0.9949747920036316, 0.33257240056991577], [0.691977322101593, -0.9289395809173584, -1.142926812171936, -0.030886201187968254, 0.19636839628219604, 0.4117273688316345, -0.27063554525375366], [0.9137991070747375, -0.48664572834968567, -0.5210483074188232, -1.2980016469955444, -0.13877466320991516, -1.1458359956741333, -0.23769477009773254], [1.186727523803711, -0.2993401885032654, -0.22642198204994202, -1.7301089763641357, 0.01769356057047844, 0.10540436953306198, -0.5558488965034485]]], [[[-0.42225468158721924, -0.30630263686180115, -0.20215635001659393, -1.0281705856323242, 0.3354452848434448, 0.8049083352088928, 0.6378041505813599], [-1.5106098651885986, 0.4477178454399109, 1.0678659677505493, -0.6760326623916626, -0.285229355096817, -0.4433654248714447, 0.19619114696979523], [-0.15569494664669037, 1.1481815576553345, 1.034087896347046, -0.6803011894226074, 1.8638559579849243, -0.4548559784889221, 1.7405718564987183], [-0.1597287654876709, -0.20686782896518707, 0.17567475140094757, 1.0091055631637573, -0.7792153358459473, 1.3155608177185059, 0.06678586453199387], [-0.32761842012405396, 0.024685900658369064, 0.9897105097770691, -0.11200211942195892, 0.2340327501296997, -0.018386825919151306, 0.14869433641433716], [-0.08271035552024841, -0.6083035469055176, 0.23784899711608887, -0.5805057287216187, 1.5308291912078857, -0.34665432572364807, 0.42672911286354065], [2.6189050674438477, 1.5771790742874146, 0.7817726731300354, 0.29656702280044556, -0.9479855895042419, 1.130184292793274, 1.2759239673614502]], [[1.0771993398666382, 1.678493857383728, -2.1574060916900635, 0.4594026505947113, -1.3509702682495117, -0.5934260487556458, -0.7653804421424866], [-1.050865650177002, -0.7571299076080322, 0.09979946166276932, 0.9842748045921326, -2.0410759449005127, 1.2784243822097778, -1.4917374849319458], [0.2728596031665802, -1.2446527481079102, -0.30411064624786377, -0.17608299851417542, -0.671443521976471, -1.947208046913147, 0.38808348774909973], [-0.7867019176483154, 1.3466325998306274, -1.4401363134384155, -2.485978841781616, -1.0359939336776733, -0.2776659429073334, 0.26426172256469727], [-1.3815174102783203, -0.8559442758560181, -1.6355596780776978, -0.9962406754493713, -0.32695257663726807, 0.3619576394557953, -0.5785878300666809], [0.04766882210969925, -2.2832388877868652, 0.4306924045085907, -1.2964669466018677, 0.971970796585083, 0.44026699662208557, -0.2657277286052704], [-0.33660560846328735, -1.499175786972046, -0.7374337911605835, -0.36926132440567017, -0.3071163296699524, -0.5741850733757019, -0.5998998880386353]], [[0.6104279160499573, -0.8153483271598816, -0.2955675423145294, 1.1773093938827515, -0.5728775858879089, -0.19191592931747437, -0.2938695251941681], [0.7304469347000122, -0.9869022965431213, 1.0490254163742065, 0.8293266892433167, 0.5843037366867065, -0.6453078389167786, 0.717868983745575], [-1.4565205574035645, -1.0454020500183105, 0.15734142065048218, -0.2703914940357208, 1.2916905879974365, -1.2366191148757935, 0.8982011675834656], [-1.0325932502746582, 0.8841537833213806, -1.539589285850525, 0.363408625125885, 1.0945749282836914, -1.1077849864959717, 0.040196534246206284], [0.7473605275154114, 0.035138700157403946, 1.2935715913772583, -0.47267550230026245, 1.1237727403640747, -0.16157804429531097, 0.5733108520507812], [1.6452796459197998, -0.489098459482193, 1.4057753086090088, -0.630606472492218, -1.8023215532302856, -1.9038336277008057, 0.5755907893180847], [0.2689814269542694, 0.6507951617240906, 0.40795111656188965, -0.010115441866219044, -0.5731090307235718, 2.432523727416992, 1.0413058996200562]]], [[[0.3552267849445343, -0.9658911228179932, 0.46753931045532227, -0.7233261466026306, 0.3608849048614502, -0.11924727261066437, 1.815530776977539], [2.3247339725494385, 0.33909690380096436, 0.182720348238945, -0.7229064702987671, 0.04823378473520279, 0.1916254460811615, -0.22882099449634552], [-0.028954535722732544, 0.46595102548599243, -0.778211236000061, -1.4111871719360352, 0.4074562191963196, -1.6706002950668335, 1.0536593198776245], [1.2635008096694946, -1.971611499786377, 0.6222262382507324, -0.9900479912757874, 1.7426806688308716, 0.672002375125885, 0.15541811287403107], [0.06013647839426994, -0.9467276930809021, -0.5048496723175049, -1.325777530670166, 0.03052818775177002, -1.6778196096420288, 0.10383307188749313], [0.7135314345359802, 0.9367191195487976, 0.6080706715583801, 1.9453654289245605, -2.0587546825408936, 1.0495949983596802, 1.298126220703125], [0.6789663434028625, 0.9384042024612427, -0.528680682182312, 0.5762975215911865, 1.0659586191177368, 0.07380633056163788, 0.1349390745162964]], [[-0.5646161437034607, 1.0993897914886475, 0.24327610433101654, 3.0842535495758057, 1.3925236463546753, -0.4862559735774994, -0.9959688186645508], [-1.1054456233978271, 0.01581825129687786, 0.9007227420806885, 1.1501349210739136, 0.5908021926879883, 0.5639365315437317, 1.4731448888778687], [0.18536825478076935, 0.8176103830337524, 0.5622976422309875, 0.4470009505748749, 0.08423539996147156, -0.25176069140434265, -0.14068248867988586], [0.6809685826301575, 0.19847743213176727, 0.4665769636631012, -0.3467388451099396, 0.19528280198574066, 0.130802184343338, -0.5215966701507568], [-0.9202240109443665, -0.10803510993719101, -0.03053726814687252, -0.7247269749641418, 0.01650604046881199, 0.7038224935531616, -1.8027324676513672], [-0.4647339880466461, -0.2368999421596527, -1.1146175861358643, 0.29791638255119324, -0.2171480357646942, -1.3834532499313354, -0.24288421869277954], [0.9217092990875244, 0.5423676371574402, -2.4059414863586426, 0.1914295107126236, 0.0857318788766861, 1.0212280750274658, 0.2323744148015976]], [[-0.762388288974762, -0.2707449495792389, -1.3199492692947388, 0.03761748597025871, -0.5540533661842346, 0.5659266710281372, -0.004257820546627045], [-0.5317942500114441, -1.1820608377456665, -0.5729582905769348, -0.9605380892753601, -1.0070886611938477, -0.012726849876344204, -0.9921457171440125], [-0.6777554154396057, -0.40975138545036316, 0.048277847468853, -0.14942136406898499, 0.2515484392642975, 0.8017889857292175, 0.24385957419872284], [1.5800988674163818, 0.4209805428981781, -1.7748581171035767, -1.2923847436904907, 0.5276223421096802, 0.42095911502838135, 0.3973790407180786], [0.7073200345039368, -0.3565022945404053, -0.6988803148269653, 1.2357101440429688, 2.4953529834747314, 0.0430806465446949, -0.03914857283234596], [1.3127329349517822, 0.2697713077068329, 0.7964261174201965, -0.48620107769966125, 0.07007864862680435, -2.5050535202026367, 1.0563244819641113], [0.35555166006088257, 1.8759251832962036, 0.5816646814346313, 0.5223162174224854, 0.7555182576179504, 0.9816440939903259, 0.13210786879062653]]], [[[1.1867117881774902, 0.006978434976190329, 0.248331680893898, 0.6844562292098999, 1.825850486755371, 0.48593541979789734, -0.21210654079914093], [-0.4376974403858185, -0.7525253891944885, -0.06580321490764618, 1.2697150707244873, -1.0399359464645386, 0.24845586717128754, 0.8963156342506409], [0.396062433719635, 0.06655450910329819, -2.0702788829803467, -0.030713370069861412, 0.6277146339416504, -1.2530375719070435, -1.039534091949463], [-1.0439170598983765, 0.669184148311615, 0.7652164697647095, -0.8670402765274048, 1.4140900373458862, -0.9549633264541626, -1.3598313331604004], [-1.392585039138794, -0.5309848785400391, -0.1197957918047905, 0.6308323740959167, -1.0393872261047363, 0.14659129083156586, -1.995741844177246], [0.4610249400138855, 2.0632691383361816, 1.5477031469345093, 1.0387003421783447, 0.4198526442050934, 0.40035101771354675, -0.9883618354797363], [-1.9501171112060547, 0.24592821300029755, -0.23251225054264069, 0.04049142450094223, 0.08220179378986359, -0.2675310969352722, 0.2997531294822693]], [[0.12132035195827484, -0.2995286285877228, 0.8145102858543396, 0.02222062461078167, -0.14338143169879913, 0.2443085014820099, -0.7698012590408325], [-0.009438959881663322, -1.2340902090072632, 0.026475753635168076, 0.23101875185966492, 0.9615206122398376, 0.40595540404319763, -0.15680864453315735], [0.9289969205856323, -1.6704708337783813, 0.12670227885246277, -0.7422285079956055, 0.28755295276641846, 0.13620494306087494, -0.2651872932910919], [0.5771758556365967, -0.34320926666259766, 0.8589064478874207, -0.5209542512893677, -0.5333232283592224, -1.917194128036499, 0.9983056783676147], [-0.5168799757957458, 1.117713451385498, 0.34490740299224854, 1.2118076086044312, -0.9262706637382507, 0.8436765670776367, -0.6183472275733948], [0.8242319822311401, 0.5840615630149841, 0.9865024089813232, -0.27369919419288635, 0.8019897937774658, -0.16513074934482574, 0.06233326345682144], [1.3963406085968018, 1.6945797204971313, 1.7826131582260132, -0.5375687479972839, -0.398565411567688, 1.1945165395736694, 0.653599739074707]], [[1.429185152053833, 1.0500519275665283, 0.13073816895484924, 0.45332157611846924, -0.1731676161289215, 2.2564566135406494, 1.5741270780563354], [-0.07455753535032272, 1.0690752267837524, -0.76507169008255, -0.8970681428909302, -0.47159186005592346, -1.4805392026901245, -1.0900752544403076], [1.698246717453003, -0.7042993307113647, 0.5726794600486755, -0.3798541724681854, 0.7678109407424927, -1.5493711233139038, -0.8524830341339111], [1.0778228044509888, -0.21883580088615417, 1.220132827758789, -1.0515127182006836, 1.8221220970153809, 1.4147619009017944, 0.2009718269109726], [2.396803379058838, -0.06663858890533447, -0.6209655404090881, -2.610250949859619, -0.1987106204032898, -0.20586852729320526, 1.6321576833724976], [-0.03128473088145256, -0.3911411166191101, -0.03063027933239937, -1.4683092832565308, -0.6336289048194885, -0.5846649408340454, -0.33163318037986755], [-1.7321960926055908, 1.001278281211853, -0.02417650818824768, 1.0718923807144165, -1.1407129764556885, 1.7518260478973389, -1.7581461668014526]]], [[[0.78152996301651, -0.2781074345111847, -0.9932013154029846, -1.9815268516540527, 0.634573757648468, 0.6102737188339233, -0.8693395853042603], [-0.11274135112762451, 0.5381855368614197, -0.05824340507388115, -0.5021188855171204, 2.642704486846924, -0.8478549718856812, 0.7702600955963135], [-0.2607962191104889, 0.055944427847862244, -1.7814453840255737, 0.3292055130004883, 0.5654517412185669, -1.2274465560913086, -0.49458301067352295], [1.2564998865127563, 0.2485540360212326, -0.5474546551704407, -0.2060948610305786, 2.109266519546509, -0.7246955633163452, 0.28398117423057556], [0.45675161480903625, -1.1258758306503296, -0.7875291109085083, -0.14075404405593872, 0.7531971335411072, 1.7309257984161377, -0.30536916851997375], [-0.4243367314338684, 0.7459185123443604, 0.6887233257293701, 0.16546446084976196, 0.8682259917259216, -0.7361739277839661, -0.8694926500320435], [-0.7632920742034912, 0.4980176091194153, -0.38718077540397644, 0.2901795506477356, -1.330329418182373, 0.1502646654844284, 1.1863129138946533]], [[1.015577793121338, -2.5640902519226074, -0.524878740310669, 0.20007067918777466, -0.7088082432746887, 0.5859424471855164, -2.1548376083374023], [-0.24090895056724548, 0.5000923871994019, 1.4409222602844238, -1.7065714597702026, -0.15631462633609772, 0.281250536441803, -1.6826215982437134], [1.796016812324524, -0.03946783021092415, -1.3596667051315308, 0.06271552294492722, 0.7469531893730164, -0.09492413699626923, 0.30123457312583923], [-1.1929293870925903, 1.1825687885284424, -0.174107626080513, -1.0915346145629883, -0.597140371799469, -0.15749511122703552, -0.4342963695526123], [1.0564318895339966, 0.3630489706993103, -0.06664112210273743, 2.08817195892334, -0.4760231077671051, -0.6979970335960388, -0.5108965635299683], [-1.7672704458236694, -0.7724447846412659, 1.0986626148223877, 1.3092923164367676, -1.1667729616165161, -0.2597692310810089, -0.8475981950759888], [0.04771677404642105, -0.7906840443611145, 1.029403567314148, -1.5300002098083496, -0.37492772936820984, 0.16957686841487885, -1.2365775108337402]], [[0.030502380803227425, -0.015449774451553822, 0.3682725429534912, 0.3109089732170105, 0.6811559796333313, 1.398996114730835, 0.4040086269378662], [-0.22834743559360504, -0.018435565754771233, 1.0852622985839844, 0.512356698513031, -0.4307745695114136, 0.29982292652130127, -0.7499886751174927], [0.1562439352273941, -0.725901186466217, -0.8134593367576599, -0.5440311431884766, 0.277949720621109, 1.0507060289382935, -0.13909615576267242], [-0.3253820836544037, 0.3623807430267334, -0.6270992755889893, -0.7547847032546997, 1.966025948524475, 0.8299473524093628, -1.3567529916763306], [-0.22308431565761566, 0.5184000134468079, -0.14851869642734528, -1.542876958847046, 1.9168386459350586, 0.19602783024311066, 2.495042562484741], [0.0017634686082601547, -0.18337774276733398, 0.6964820027351379, -0.9883816242218018, 1.4393465518951416, 0.8051441311836243, -0.19528989493846893], [1.900073528289795, -1.9973987340927124, 1.3699666261672974, -0.9472277760505676, 1.1433147192001343, -0.8011528849601746, -2.4656264781951904]]], [[[-0.07616917788982391, -0.08931160718202591, 2.491731643676758, 0.5783870816230774, -0.6323398947715759, 0.800695538520813, -1.8750073909759521], [-0.4236203730106354, -0.7160148620605469, 0.21592089533805847, 0.241088405251503, -1.0259418487548828, 0.09466429799795151, 0.5405294895172119], [0.5745099186897278, 0.3429664969444275, -0.5602620244026184, 0.8506419658660889, 1.3915116786956787, -0.17535428702831268, -1.1018192768096924], [0.9710613489151001, 1.5201442241668701, -1.2327574491500854, 0.7629646062850952, -0.03820262476801872, -0.32246679067611694, -0.13542664051055908], [-0.8817943930625916, 1.208594560623169, 1.5356144905090332, 1.5597318410873413, -0.36536046862602234, -1.046867847442627, 0.2460961788892746], [1.0680466890335083, 0.5964469909667969, 0.2226521521806717, 0.04064587131142616, 0.23216603696346283, -1.8819211721420288, 0.3568252921104431], [0.0715811625123024, 0.21876409649848938, 0.0951063260436058, -1.233067512512207, -0.6155988574028015, -0.10186944901943207, -0.4398147463798523]], [[-1.3338780403137207, -0.2821083068847656, 0.2646011710166931, -0.9552885293960571, 0.9673274159431458, 0.6440772414207458, 0.015031583607196808], [-2.1915926933288574, -0.03790301829576492, 0.18868976831436157, 1.2975339889526367, -0.744787335395813, -1.6239300966262817, -0.5246178507804871], [-0.8189980387687683, 0.8091762065887451, -0.4804844260215759, 1.2001686096191406, -0.6155163049697876, 2.310199499130249, 0.008125998079776764], [-0.6534824967384338, -0.8764240145683289, 1.684200406074524, 0.7276331782341003, 1.1158926486968994, -0.697443425655365, 1.1122077703475952], [-0.9674705862998962, 1.3982549905776978, -1.5593338012695312, -0.26452454924583435, -0.745708703994751, 0.08565440028905869, 0.34922701120376587], [1.482316017150879, 0.5936459898948669, -0.9376350045204163, 1.4960311651229858, 0.27261245250701904, 0.02917589247226715, 1.3840997219085693], [-0.13010835647583008, -0.3455379605293274, 0.9601996541023254, -3.006037950515747, -0.9299697875976562, -1.05263352394104, 1.4828640222549438]], [[1.032694935798645, 0.4680863916873932, 1.2696877717971802, 0.41717320680618286, -0.6924760937690735, 0.9668207168579102, -0.35140368342399597], [0.4662337303161621, -1.3810029029846191, -0.5925523638725281, 0.1941433548927307, -0.36365965008735657, -0.8070605397224426, 0.440561980009079], [0.8688011765480042, -0.2348981648683548, 0.5046820640563965, 1.2095863819122314, 1.1768194437026978, -0.35885608196258545, 1.2873013019561768], [1.8337148427963257, -0.7308149933815002, 0.5282132625579834, 2.680366039276123, 0.6461617350578308, 1.019341230392456, -0.14967624843120575], [0.2357158064842224, 1.8104140758514404, -0.6578201651573181, 0.151577889919281, -0.008405609987676144, 1.7587668895721436, 0.3344282805919647], [0.6017866134643555, -1.7182320356369019, 0.4525667428970337, -1.1808799505233765, -0.3598243296146393, 0.6535173654556274, -0.8383950591087341], [0.542256236076355, 0.3036552369594574, -0.9892832040786743, -0.22248348593711853, 0.4521012008190155, 1.511921763420105, -0.8022856712341309]]], [[[-0.11315484344959259, -1.6084129810333252, 1.6306992769241333, 1.7751667499542236, 0.08496731519699097, -1.5294197797775269, 1.4695297479629517], [-0.5814377665519714, -0.5973477959632874, 1.1487302780151367, 1.9548662900924683, 1.3884425163269043, 0.6270627975463867, -0.7011356949806213], [-0.05988961458206177, -1.4457290172576904, 0.259502112865448, 2.5321617126464844, 0.1859850287437439, -0.9818689823150635, -1.7795524597167969], [0.7365102171897888, 1.4326763153076172, -0.41195148229599, -1.3596984148025513, 0.1637032926082611, -0.10144231468439102, -0.8224459290504456], [0.3910958170890808, -0.27664968371391296, 1.0404022932052612, -2.1758387088775635, 0.20896990597248077, 0.2733904719352722, -0.5213639140129089], [0.16329875588417053, 0.5125053524971008, -1.4288939237594604, -0.16033047437667847, -0.8405488133430481, -0.3633292019367218, -0.36037954688072205], [-1.754895806312561, -0.07276227325201035, -0.9543310403823853, 0.28301966190338135, -0.9102591872215271, 1.8067748546600342, 0.29334768652915955]], [[-0.09630822390317917, -1.0477784872055054, -1.401186466217041, 1.1390641927719116, 0.685210645198822, 0.26517394185066223, 0.5011037588119507], [0.721369743347168, 0.6093454360961914, -0.27895620465278625, 2.27315354347229, 2.0523009300231934, 1.973523497581482, 1.825209617614746], [-1.7657133340835571, 0.1430635303258896, 